{"learner":{"attributes":{"scikit_learn":"{\"_estimator_type\": \"classifier\"}"},"feature_names":[],"feature_types":[],"gradient_booster":{"model":{"cats":{"enc":[],"feature_segments":[],"sorted_idx":[]},"gbtree_model_param":{"num_parallel_tree":"1","num_trees":"200"},"iteration_indptr":[0,1,2,3,4,5,6,7,8,9,10,11,12,13,14,15,16,17,18,19,20,21,22,23,24,25,26,27,28,29,30,31,32,33,34,35,36,37,38,39,40,41,42,43,44,45,46,47,48,49,50,51,52,53,54,55,56,57,58,59,60,61,62,63,64,65,66,67,68,69,70,71,72,73,74,75,76,77,78,79,80,81,82,83,84,85,86,87,88,89,90,91,92,93,94,95,96,97,98,99,100,101,102,103,104,105,106,107,108,109,110,111,112,113,114,115,116,117,118,119,120,121,122,123,124,125,126,127,128,129,130,131,132,133,134,135,136,137,138,139,140,141,142,143,144,145,146,147,148,149,150,151,152,153,154,155,156,157,158,159,160,161,162,163,164,165,166,167,168,169,170,171,172,173,174,175,176,177,178,179,180,181,182,183,184,185,186,187,188,189,190,191,192,193,194,195,196,197,198,199,200],"tree_info":[0,0,0,0,0,0,0,0,0,0,0,0,0,0,0,0,0,0,0,0,0,0,0,0,0,0,0,0,0,0,0,0,0,0,0,0,0,0,0,0,0,0,0,0,0,0,0,0,0,0,0,0,0,0,0,0,0,0,0,0,0,0,0,0,0,0,0,0,0,0,0,0,0,0,0,0,0,0,0,0,0,0,0,0,0,0,0,0,0,0,0,0,0,0,0,0,0,0,0,0,0,0,0,0,0,0,0,0,0,0,0,0,0,0,0,0,0,0,0,0,0,0,0,0,0,0,0,0,0,0,0,0,0,0,0,0,0,0,0,0,0,0,0,0,0,0,0,0,0,0,0,0,0,0,0,0,0,0,0,0,0,0,0,0,0,0,0,0,0,0,0,0,0,0,0,0,0,0,0,0,0,0,0,0,0,0,0,0,0,0,0,0,0,0,0,0,0,0,0,0],"trees":[{"base_weights":[3.1625412E-2,-1.9476603E0,1.3788834E0,-9.889042E-2,-6.592535E-2,3.0258646E-2,7.954275E-2],"categories":[],"categories_nodes":[],"categories_segments":[],"categories_sizes":[],"default_left":[0,0,0,0,0,0,0],"id":0,"left_children":[1,3,5,-1,-1,-1,-1],"loss_changes":[2.4317092E3,4.397583E0,8.8021484E1,0E0,0E0,0E0,0E0],"parents":[2147483647,0,0,1,1,2,2],"right_children":[2,4,6,-1,-1,-1,-1],"split_conditions":[1.4562328E-1,2.7E1,2.0629966E-1,-9.889042E-2,-6.592535E-2,3.0258646E-2,7.954275E-2],"split_indices":[1,2,1,0,0,0,0],"split_type":[0,0,0,0,0,0,0],"sum_hessian":[9.099039E2,3.683327E2,5.4157117E2,3.4944424E2,1.8888462E1,1.17294235E2,4.2427692E2],"tree_param":{"num_deleted":"0","num_feature":"9","num_nodes":"7","size_leaf_vector":"1"}},{"base_weights":[-2.4298313E-3,-1.8359643E-1,9.9174523E-1,-2.5049507E-4,-3.1117845E-2,-9.306356E-3,5.7371415E-2],"categories":[],"categories_nodes":[],"categories_segments":[],"categories_sizes":[],"default_left":[0,1,0,0,0,0,0],"id":1,"left_children":[1,3,5,-1,-1,-1,-1],"loss_changes":[1.610146E2,5.9247482E1,2.548204E1,0E0,0E0,0E0,0E0],"parents":[2147483647,0,0,1,1,2,2],"right_children":[2,4,6,-1,-1,-1,-1],"split_conditions":[1.3E1,5.985185E0,1E0,-2.5049507E-4,-3.1117845E-2,-9.306356E-3,5.7371415E-2],"split_indices":[5,8,3,0,0,0,0],"split_type":[0,0,0,0,0,0,0],"sum_hessian":[8.919618E2,7.551649E2,1.3679692E2,5.3742914E2,2.1773575E2,1.59472275E1,1.20849686E2],"tree_param":{"num_deleted":"0","num_feature":"9","num_nodes":"7","size_leaf_vector":"1"}},{"base_weights":[2.8969761E-2,-1.01544075E-1,1.0810735E0,-1.3932223E-2,1.2832548E-2,4.0752098E-2,6.659572E-2],"categories":[],"categories_nodes":[],"categories_segments":[],"categories_sizes":[],"default_left":[0,0,0,0,0,0,0],"id":2,"left_children":[1,3,5,-1,-1,-1,-1],"loss_changes":[1.2277666E2,5.054517E1,5.4990997E0,0E0,0E0,0E0,0E0],"parents":[2147483647,0,0,1,1,2,2],"right_children":[2,4,6,-1,-1,-1,-1],"split_conditions":[1.5E1,1E0,3E1,-1.3932223E-2,1.2832548E-2,4.0752098E-2,6.659572E-2],"split_indices":[5,3,6,0,0,0,0],"split_type":[0,0,0,0,0,0,0],"sum_hessian":[8.923305E2,7.9465656E2,9.7673935E1,5.318962E2,2.6276038E2,4.9463833E1,4.8210106E1],"tree_param":{"num_deleted":"0","num_feature":"9","num_nodes":"7","size_leaf_vector":"1"}},{"base_weights":[-1.6297651E-2,-1.8771087E0,1.2806399E0,-9.450482E-2,-4.930094E-2,3.2907852E-3,7.4272E-2],"categories":[],"categories_nodes":[],"categories_segments":[],"categories_sizes":[],"default_left":[0,0,0,0,0,0,0],"id":3,"left_children":[1,3,5,-1,-1,-1,-1],"loss_changes":[2.1886467E3,2.4468994E0,1.3286444E2,0E0,0E0,0E0,0E0],"parents":[2147483647,0,0,1,1,2,2],"right_children":[2,4,6,-1,-1,-1,-1],"split_conditions":[1.4562328E-1,2.2E1,1.9043045E-1,-9.450482E-2,-4.930094E-2,3.2907852E-3,7.4272E-2],"split_indices":[1,5,1,0,0,0,0],"split_type":[0,0,0,0,0,0,0],"sum_hessian":[9.048933E2,3.7147034E2,5.33423E2,3.6502896E2,6.4413767E0,7.714415E1,4.5627887E2],"tree_param":{"num_deleted":"0","num_feature":"9","num_nodes":"7","size_leaf_vector":"1"}},{"base_weights":[-1.4924753E-2,-1.76646E0,1.2491683E0,-8.946091E-2,-6.3605376E-2,2.4946142E-2,7.182785E-2],"categories":[],"categories_nodes":[],"categories_segments":[],"categories_sizes":[],"default_left":[0,0,0,0,0,0,0],"id":4,"left_children":[1,3,5,-1,-1,-1,-1],"loss_changes":[1.9694642E3,1.9189453E0,7.191791E1,0E0,0E0,0E0,0E0],"parents":[2147483647,0,0,1,1,2,2],"right_children":[2,4,6,-1,-1,-1,-1],"split_conditions":[1.4562328E-1,2.7E1,2.0629966E-1,-8.946091E-2,-6.3605376E-2,2.4946142E-2,7.182785E-2],"split_indices":[1,2,1,0,0,0,0],"split_type":[0,0,0,0,0,0,0],"sum_hessian":[8.875121E2,3.718613E2,5.1565076E2,3.529915E2,1.8869822E1,1.03786095E2,4.1186465E2],"tree_param":{"num_deleted":"0","num_feature":"9","num_nodes":"7","size_leaf_vector":"1"}},{"base_weights":[4.464779E-3,-1.6963428E0,1.1796823E0,-8.599835E-2,-5.6863762E-2,1.8109404E-2,6.8877645E-2],"categories":[],"categories_nodes":[],"categories_segments":[],"categories_sizes":[],"default_left":[0,0,0,0,0,0,0],"id":5,"left_children":[1,3,5,-1,-1,-1,-1],"loss_changes":[1.7944565E3,2.889038E0,8.537982E1,0E0,0E0,0E0,0E0],"parents":[2147483647,0,0,1,1,2,2],"right_children":[2,4,6,-1,-1,-1,-1],"split_conditions":[1.4562328E-1,2.7E1,2.0629966E-1,-8.599835E-2,-5.6863762E-2,1.8109404E-2,6.8877645E-2],"split_indices":[1,2,1,0,0,0,0],"split_type":[0,0,0,0,0,0,0],"sum_hessian":[8.957572E2,3.658481E2,5.2990906E2,3.4902322E2,1.6824902E1,1.0381834E2,4.2609073E2],"tree_param":{"num_deleted":"0","num_feature":"9","num_nodes":"7","size_leaf_vector":"1"}},{"base_weights":[1.6462969E-2,-1.6504457E0,1.1479491E0,-8.3159074E-2,-3.6444683E-2,1.4688827E-2,6.58205E-2],"categories":[],"categories_nodes":[],"categories_segments":[],"categories_sizes":[],"default_left":[0,0,0,0,0,0,0],"id":6,"left_children":[1,3,5,-1,-1,-1,-1],"loss_changes":[1.6727772E3,2.996643E0,7.563147E1,0E0,0E0,0E0,0E0],"parents":[2147483647,0,0,1,1,2,2],"right_children":[2,4,6,-1,-1,-1,-1],"split_conditions":[1.4562328E-1,2.2E1,1.9043045E-1,-8.3159074E-2,-3.6444683E-2,1.4688827E-2,6.58205E-2],"split_indices":[1,5,1,0,0,0,0],"split_type":[0,0,0,0,0,0,0],"sum_hessian":[8.8490045E2,3.576099E2,5.272906E2,3.519413E2,5.6685586E0,8.731386E1,4.399767E2],"tree_param":{"num_deleted":"0","num_feature":"9","num_nodes":"7","size_leaf_vector":"1"}},{"base_weights":[-8.9496635E-3,-1.5815057E0,1.0943738E0,-8.0393456E-2,-5.569145E-2,1.1299997E-2,6.298474E-2],"categories":[],"categories_nodes":[],"categories_segments":[],"categories_sizes":[],"default_left":[0,0,0,0,0,0,0],"id":7,"left_children":[1,3,5,-1,-1,-1,-1],"loss_changes":[1.5087983E3,2.6298218E0,7.3082275E1,0E0,0E0,0E0,0E0],"parents":[2147483647,0,0,1,1,2,2],"right_children":[2,4,6,-1,-1,-1,-1],"split_conditions":[1.4562328E-1,3E0,1.9043045E-1,-8.0393456E-2,-5.569145E-2,1.1299997E-2,6.298474E-2],"split_indices":[1,3,1,0,0,0,0],"split_type":[0,0,0,0,0,0,0],"sum_hessian":[8.676079E2,3.5755496E2,5.1005295E2,3.361669E2,2.1388079E1,8.19524E1,4.2810056E2],"tree_param":{"num_deleted":"0","num_feature":"9","num_nodes":"7","size_leaf_vector":"1"}},{"base_weights":[-5.8306224E-4,-1.5111241E0,1.0775027E0,-7.661645E-2,-1.8828234E-2,2.5572581E-2,6.559873E-2],"categories":[],"categories_nodes":[],"categories_segments":[],"categories_sizes":[],"default_left":[0,0,0,0,0,0,0],"id":8,"left_children":[1,3,5,-1,-1,-1,-1],"loss_changes":[1.394013E3,7.999878E0,6.562555E1,0E0,0E0,0E0,0E0],"parents":[2147483647,0,0,1,1,2,2],"right_children":[2,4,6,-1,-1,-1,-1],"split_conditions":[1.5111287E-1,1.4562328E-1,2.2505417E-1,-7.661645E-2,-1.8828234E-2,2.5572581E-2,6.559873E-2],"split_indices":[1,1,1,0,0,0,0],"split_type":[0,0,0,0,0,0,0],"sum_hessian":[8.540143E2,3.5550418E2,4.985101E2,3.4863757E2,6.866607E0,1.4694455E2,3.5156555E2],"tree_param":{"num_deleted":"0","num_feature":"9","num_nodes":"7","size_leaf_vector":"1"}},{"base_weights":[-2.9563496E-2,-7.6029114E-2,9.9924433E-1,1.789973E-2,5.856965E-2],"categories":[],"categories_nodes":[],"categories_segments":[],"categories_sizes":[],"default_left":[0,0,0,0,0],"id":9,"left_children":[1,-1,3,-1,-1],"loss_changes":[1.2713407E3,0E0,5.371881E1,0E0,0E0],"parents":[2147483647,0,0,2,2],"right_children":[2,-1,4,-1,-1],"split_conditions":[1.4562328E-1,-7.6029114E-2,2.0629966E-1,1.789973E-2,5.856965E-2],"split_indices":[1,0,1,0,0],"split_type":[0,0,0,0,0],"sum_hessian":[8.2679974E2,3.3737494E2,4.8942484E2,1.04234314E2,3.8519052E2],"tree_param":{"num_deleted":"0","num_feature":"9","num_nodes":"5","size_leaf_vector":"1"}},{"base_weights":[-8.530201E-4,-1.2790388E-1,7.237167E-1,1.1468856E-3,-2.1433545E-2,-2.378643E-2,4.3930527E-2],"categories":[],"categories_nodes":[],"categories_segments":[],"categories_sizes":[],"default_left":[0,1,0,0,0,0,0],"id":10,"left_children":[1,3,5,-1,-1,-1,-1],"loss_changes":[7.5724075E1,3.1760878E1,2.3217354E1,0E0,0E0,0E0,0E0],"parents":[2147483647,0,0,1,1,2,2],"right_children":[2,4,6,-1,-1,-1,-1],"split_conditions":[1.3E1,4.9913774E0,1E1,1.1468856E-3,-2.1433545E-2,-2.378643E-2,4.3930527E-2],"split_indices":[5,8,6,0,0,0,0],"split_type":[0,0,0,0,0,0,0],"sum_hessian":[8.2057074E2,6.988528E2,1.21718E2,4.6604446E2,2.3280829E2,1.36838255E1,1.0803417E2],"tree_param":{"num_deleted":"0","num_feature":"9","num_nodes":"7","size_leaf_vector":"1"}},{"base_weights":[-3.5354897E-2,-1.461245E0,9.3387765E-1,-7.375603E-2,-2.5672851E-2,1.3895059E-2,5.590527E-2],"categories":[],"categories_nodes":[],"categories_segments":[],"categories_sizes":[],"default_left":[0,0,0,0,0,0,0],"id":11,"left_children":[1,3,5,-1,-1,-1,-1],"loss_changes":[1.1231051E3,3.5672607E0,5.81586E1,0E0,0E0,0E0,0E0],"parents":[2147483647,0,0,1,1,2,2],"right_children":[2,4,6,-1,-1,-1,-1],"split_conditions":[1.4562328E-1,2.2E1,2.0629966E-1,-7.375603E-2,-2.5672851E-2,1.3895059E-2,5.590527E-2],"split_indices":[1,5,1,0,0,0,0],"split_type":[0,0,0,0,0,0,0],"sum_hessian":[8.106679E2,3.2784695E2,4.8282092E2,3.225682E2,5.2787714E0,1.0641598E2,3.7640494E2],"tree_param":{"num_deleted":"0","num_feature":"9","num_nodes":"7","size_leaf_vector":"1"}},{"base_weights":[-1.6087776E-2,-1.2119048E-1,7.1912533E-1,3.4798943E-2,-8.265462E-3,-9.02116E-3,4.1289654E-2],"categories":[],"categories_nodes":[],"categories_segments":[],"categories_sizes":[],"default_left":[0,0,0,0,0,0,0],"id":12,"left_children":[1,3,5,-1,-1,-1,-1],"loss_changes":[6.234915E1,2.5561592E1,9.832806E0,0E0,0E0,0E0,0E0],"parents":[2147483647,0,0,1,1,2,2],"right_children":[2,4,6,-1,-1,-1,-1],"split_conditions":[1.4E1,1.080787E-1,1E0,3.4798943E-2,-8.265462E-3,-9.02116E-3,4.1289654E-2],"split_indices":[5,8,3,0,0,0,0],"split_type":[0,0,0,0,0,0,0],"sum_hessian":[8.047419E2,7.0481934E2,9.992259E1,3.534693E1,6.694724E2,1.0519375E1,8.940321E1],"tree_param":{"num_deleted":"0","num_feature":"9","num_nodes":"7","size_leaf_vector":"1"}},{"base_weights":[9.54145E-3,-1.42455E0,9.395641E-1,-7.272642E-2,-4.680184E-2,1.7458787E-2,5.5704314E-2],"categories":[],"categories_nodes":[],"categories_segments":[],"categories_sizes":[],"default_left":[0,0,0,0,0,0,0],"id":13,"left_children":[1,3,5,-1,-1,-1,-1],"loss_changes":[1.0929084E3,3.359436E0,5.0826874E1,0E0,0E0,0E0,0E0],"parents":[2147483647,0,0,1,1,2,2],"right_children":[2,4,6,-1,-1,-1,-1],"split_conditions":[1.4562328E-1,3E0,2.0629966E-1,-7.272642E-2,-4.680184E-2,1.7458787E-2,5.5704314E-2],"split_indices":[1,3,1,0,0,0,0],"split_type":[0,0,0,0,0,0,0],"sum_hessian":[8.174293E2,3.2136066E2,4.9606866E2,3.0091696E2,2.0443676E1,1.1386776E2,3.822009E2],"tree_param":{"num_deleted":"0","num_feature":"9","num_nodes":"7","size_leaf_vector":"1"}},{"base_weights":[-9.739236E-3,-6.994729E-2,9.1058695E-1,2.2286152E-2,5.5505585E-2],"categories":[],"categories_nodes":[],"categories_segments":[],"categories_sizes":[],"default_left":[0,0,0,0,0],"id":14,"left_children":[1,-1,3,-1,-1],"loss_changes":[1.0196968E3,0E0,4.4002472E1,0E0,0E0],"parents":[2147483647,0,0,2,2],"right_children":[2,-1,4,-1,-1],"split_conditions":[1.5111287E-1,-6.994729E-2,2.2505417E-1,2.2286152E-2,5.5505585E-2],"split_indices":[1,0,1,0,0],"split_type":[0,0,0,0,0],"sum_hessian":[7.9556195E2,3.1681644E2,4.7874554E2,1.4474487E2,3.3400067E2],"tree_param":{"num_deleted":"0","num_feature":"9","num_nodes":"5","size_leaf_vector":"1"}},{"base_weights":[3.1542268E-3,-9.401288E-2,6.7787254E-1,5.833931E-3,-1.2902345E-2,-9.636078E-3,4.5004066E-2],"categories":[],"categories_nodes":[],"categories_segments":[],"categories_sizes":[],"default_left":[0,1,0,0,0,0,0],"id":15,"left_children":[1,3,5,-1,-1,-1,-1],"loss_changes":[5.1560036E1,2.3789757E1,1.9325375E1,0E0,0E0,0E0,0E0],"parents":[2147483647,0,0,1,1,2,2],"right_children":[2,4,6,-1,-1,-1,-1],"split_conditions":[2.2E1,1.080787E-1,9E0,5.833931E-3,-1.2902345E-2,-9.636078E-3,4.5004066E-2],"split_indices":[6,8,5,0,0,0,0],"split_type":[0,0,0,0,0,0,0],"sum_hessian":[7.844785E2,6.8647845E2,9.800004E1,3.006285E2,3.8584998E2,1.9954151E1,7.804589E1],"tree_param":{"num_deleted":"0","num_feature":"9","num_nodes":"7","size_leaf_vector":"1"}},{"base_weights":[-3.2096315E-2,-1.24945275E-1,8.06588E-1,7.269257E-4,-1.9788735E-2,1.1652922E-2,4.462753E-2],"categories":[],"categories_nodes":[],"categories_segments":[],"categories_sizes":[],"default_left":[0,1,0,0,0,0,0],"id":16,"left_children":[1,3,5,-1,-1,-1,-1],"loss_changes":[5.9289864E1,2.5889963E1,3.53376E0,0E0,0E0,0E0,0E0],"parents":[2147483647,0,0,1,1,2,2],"right_children":[2,4,6,-1,-1,-1,-1],"split_conditions":[2.9E1,4.9913774E0,1E1,7.269257E-4,-1.9788735E-2,1.1652922E-2,4.462753E-2],"split_indices":[2,8,6,0,0,0,0],"split_type":[0,0,0,0,0,0,0],"sum_hessian":[7.590918E2,6.8419684E2,7.489496E1,4.5223242E2,2.3196445E2,1.0246042E1,6.464892E1],"tree_param":{"num_deleted":"0","num_feature":"9","num_nodes":"7","size_leaf_vector":"1"}},{"base_weights":[-7.845688E-3,-6.785463E-2,8.60192E-1,1.518593E-2,5.0974626E-2],"categories":[],"categories_nodes":[],"categories_segments":[],"categories_sizes":[],"default_left":[0,0,0,0,0],"id":17,"left_children":[1,-1,3,-1,-1],"loss_changes":[9.004552E2,0E0,4.1163727E1,0E0,0E0],"parents":[2147483647,0,0,2,2],"right_children":[2,-1,4,-1,-1],"split_conditions":[1.4562328E-1,-6.785463E-2,2.0629966E-1,1.518593E-2,5.0974626E-2],"split_indices":[1,0,1,0,0],"split_type":[0,0,0,0,0],"sum_hessian":[7.668364E2,2.999858E2,4.6685065E2,1.04547775E2,3.6230286E2],"tree_param":{"num_deleted":"0","num_feature":"9","num_nodes":"5","size_leaf_vector":"1"}},{"base_weights":[2.34368E-2,-1.9688784E-1,3.5182962E-1,-8.495594E-4,-3.646568E-2,1.0459118E-2,4.5574438E-2],"categories":[],"categories_nodes":[],"categories_segments":[],"categories_sizes":[],"default_left":[0,1,0,0,0,0,0],"id":18,"left_children":[1,3,5,-1,-1,-1,-1],"loss_changes":[5.5983807E1,4.434812E1,2.461045E1,0E0,0E0,0E0,0E0],"parents":[2147483647,0,0,1,1,2,2],"right_children":[2,4,6,-1,-1,-1,-1],"split_conditions":[1E0,4.9913774E0,3E1,-8.495594E-4,-3.646568E-2,1.0459118E-2,4.5574438E-2],"split_indices":[3,8,6,0,0,0,0],"split_type":[0,0,0,0,0,0,0],"sum_hessian":[7.718016E2,4.621424E2,3.0965918E2,3.4619986E2,1.1594253E2,2.4785825E2,6.1800938E1],"tree_param":{"num_deleted":"0","num_feature":"9","num_nodes":"7","size_leaf_vector":"1"}},{"base_weights":[-1.571444E-3,-1.2644582E0,8.841486E-1,-6.54821E-2,-2.2467904E-2,2.5788797E-2,5.205037E-2],"categories":[],"categories_nodes":[],"categories_segments":[],"categories_sizes":[],"default_left":[0,0,0,0,0,0,0],"id":19,"left_children":[1,3,5,-1,-1,-1,-1],"loss_changes":[8.396196E2,1.0807556E1,2.495642E1,0E0,0E0,0E0,0E0],"parents":[2147483647,0,0,1,1,2,2],"right_children":[2,4,6,-1,-1,-1,-1],"split_conditions":[1.6503973E-1,1.4562328E-1,2.2505417E-1,-6.54821E-2,-2.2467904E-2,2.5788797E-2,5.205037E-2],"split_indices":[1,1,1,0,0,0,0],"split_type":[0,0,0,0,0,0,0],"sum_hessian":[7.4862317E2,3.084286E2,4.4019455E2,2.9165445E2,1.6774155E1,1.3274341E2,3.0745114E2],"tree_param":{"num_deleted":"0","num_feature":"9","num_nodes":"7","size_leaf_vector":"1"}},{"base_weights":[2.7478566E-2,-1.2570759E0,8.721242E-1,-6.5230176E-2,-2.075146E-2,2.4016952E-2,4.853206E-2],"categories":[],"categories_nodes":[],"categories_segments":[],"categories_sizes":[],"default_left":[0,0,0,0,0,0,0],"id":20,"left_children":[1,3,5,-1,-1,-1,-1],"loss_changes":[8.234954E2,1.1508575E1,1.7206818E1,0E0,0E0,0E0,0E0],"parents":[2147483647,0,0,1,1,2,2],"right_children":[2,4,6,-1,-1,-1,-1],"split_conditions":[1.6503973E-1,1.4562328E-1,2.0629966E-1,-6.5230176E-2,-2.075146E-2,2.4016952E-2,4.853206E-2],"split_indices":[1,1,1,0,0,0,0],"split_type":[0,0,0,0,0,0,0],"sum_hessian":[7.569762E2,3.0009592E2,4.568803E2,2.835426E2,1.6553318E1,9.298214E1,3.6389816E2],"tree_param":{"num_deleted":"0","num_feature":"9","num_nodes":"7","size_leaf_vector":"1"}},{"base_weights":[3.826191E-2,-9.816731E-2,5.029849E-1,2.0620085E-3,-2.1093292E-2,-1.3822657E-2,3.1614795E-2],"categories":[],"categories_nodes":[],"categories_segments":[],"categories_sizes":[],"default_left":[0,0,0,0,0,0,0],"id":21,"left_children":[1,3,5,-1,-1,-1,-1],"loss_changes":[4.6575943E1,2.5654922E1,1.6976967E1,0E0,0E0,0E0,0E0],"parents":[2147483647,0,0,1,1,2,2],"right_children":[2,4,6,-1,-1,-1,-1],"split_conditions":[1.7E1,2E0,1E0,2.0620085E-3,-2.1093292E-2,-1.3822657E-2,3.1614795E-2],"split_indices":[2,4,3,0,0,0,0],"split_type":[0,0,0,0,0,0,0],"sum_hessian":[7.328368E2,5.67132E2,1.6570479E2,3.970198E2,1.701122E2,2.3417149E1,1.4228763E2],"tree_param":{"num_deleted":"0","num_feature":"9","num_nodes":"7","size_leaf_vector":"1"}},{"base_weights":[1.862213E-2,-6.193262E-2,6.8213236E-1,-5.406248E-3,2.9639333E-2,2.1217516E-2,5.399509E-2],"categories":[],"categories_nodes":[],"categories_segments":[],"categories_sizes":[],"default_left":[0,0,0,0,0,0,0],"id":22,"left_children":[1,3,5,-1,-1,-1,-1],"loss_changes":[3.870579E1,1.960036E1,7.580494E0,0E0,0E0,0E0,0E0],"parents":[2147483647,0,0,1,1,2,2],"right_children":[2,4,6,-1,-1,-1,-1],"split_conditions":[3E0,2.8E1,2.1E1,-5.406248E-3,2.9639333E-2,2.1217516E-2,5.399509E-2],"split_indices":[3,2,6,0,0,0,0],"split_type":[0,0,0,0,0,0,0],"sum_hessian":[7.22374E2,6.4497614E2,7.739792E1,6.0324994E2,4.172617E1,4.8216877E1,2.918104E1],"tree_param":{"num_deleted":"0","num_feature":"9","num_nodes":"7","size_leaf_vector":"1"}},{"base_weights":[1.6764976E-2,-1.258932E0,7.649262E-1,-6.4624436E-2,-3.7358165E-2,8.1361905E-3,4.753688E-2],"categories":[],"categories_nodes":[],"categories_segments":[],"categories_sizes":[],"default_left":[0,0,0,0,0,0,0],"id":23,"left_children":[1,3,5,-1,-1,-1,-1],"loss_changes":[7.0834406E2,3.7460022E0,5.218979E1,0E0,0E0,0E0,0E0],"parents":[2147483647,0,0,1,1,2,2],"right_children":[2,4,6,-1,-1,-1,-1],"split_conditions":[1.4562328E-1,3E0,2.0629966E-1,-6.4624436E-2,-3.7358165E-2,8.1361905E-3,4.753688E-2],"split_indices":[1,3,1,0,0,0,0],"split_type":[0,0,0,0,0,0,0],"sum_hessian":[7.4015784E2,2.7336234E2,4.667955E2,2.551093E2,1.825304E1,1.10511345E2,3.5628415E2],"tree_param":{"num_deleted":"0","num_feature":"9","num_nodes":"7","size_leaf_vector":"1"}},{"base_weights":[3.4638569E-3,-1.2576158E0,7.6957834E-1,-6.397406E-2,-1.8328412E-2,1.505944E-2,4.5362424E-2],"categories":[],"categories_nodes":[],"categories_segments":[],"categories_sizes":[],"default_left":[0,0,0,0,0,0,0],"id":24,"left_children":[1,3,5,-1,-1,-1,-1],"loss_changes":[6.868588E2,4.765625E0,2.8244995E1,0E0,0E0,0E0,0E0],"parents":[2147483647,0,0,1,1,2,2],"right_children":[2,4,6,-1,-1,-1,-1],"split_conditions":[1.5111287E-1,1.4562328E-1,2.0629966E-1,-6.397406E-2,-1.8328412E-2,1.505944E-2,4.5362424E-2],"split_indices":[1,1,1,0,0,0,0],"split_type":[0,0,0,0,0,0,0],"sum_hessian":[7.089356E2,2.6767752E2,4.4125806E2,2.6084085E2,6.836694E0,1.0095856E2,3.402995E2],"tree_param":{"num_deleted":"0","num_feature":"9","num_nodes":"7","size_leaf_vector":"1"}},{"base_weights":[3.7148908E-2,-3.854633E-2,6.132988E-1,6.356619E-3,-8.4026195E-3,-1.4717977E-2,3.8121335E-2],"categories":[],"categories_nodes":[],"categories_segments":[],"categories_sizes":[],"default_left":[0,1,0,0,0,0,0],"id":25,"left_children":[1,3,5,-1,-1,-1,-1],"loss_changes":[3.1347427E1,1.3662838E1,1.1521957E1,0E0,0E0,0E0,0E0],"parents":[2147483647,0,0,1,1,2,2],"right_children":[2,4,6,-1,-1,-1,-1],"split_conditions":[2.6E1,1.080787E-1,1E1,6.356619E-3,-8.4026195E-3,-1.4717977E-2,3.8121335E-2],"split_indices":[2,8,6,0,0,0,0],"split_type":[0,0,0,0,0,0,0],"sum_hessian":[7.172411E2,6.3477655E2,8.2464584E1,2.785028E2,3.5627374E2,1.1499523E1,7.096506E1],"tree_param":{"num_deleted":"0","num_feature":"9","num_nodes":"7","size_leaf_vector":"1"}},{"base_weights":[-6.789681E-3,-1.1883298E0,7.8895265E-1,-6.301024E-2,-1.8816834E-2,2.5974879E-2,4.583272E-2],"categories":[],"categories_nodes":[],"categories_segments":[],"categories_sizes":[],"default_left":[0,0,0,0,0,0,0],"id":26,"left_children":[1,3,5,-1,-1,-1,-1],"loss_changes":[6.4491315E2,1.563623E1,1.3628006E1,0E0,0E0,0E0,0E0],"parents":[2147483647,0,0,1,1,2,2],"right_children":[2,4,6,-1,-1,-1,-1],"split_conditions":[1.7682828E-1,1.4562328E-1,2.2505417E-1,-6.301024E-2,-1.8816834E-2,2.5974879E-2,4.583272E-2],"split_indices":[1,1,1,0,0,0,0],"split_type":[0,0,0,0,0,0,0],"sum_hessian":[6.839336E2,2.7504532E2,4.0888824E2,2.5217195E2,2.2873373E1,1.3310349E2,2.757848E2],"tree_param":{"num_deleted":"0","num_feature":"9","num_nodes":"7","size_leaf_vector":"1"}},{"base_weights":[1.632197E-2,-1.1343559E0,7.4060905E-1,-5.9918106E-2,-1.2021608E-2,2.0167807E-2,4.4640582E-2],"categories":[],"categories_nodes":[],"categories_segments":[],"categories_sizes":[],"default_left":[0,0,0,0,0,0,0],"id":27,"left_children":[1,3,5,-1,-1,-1,-1],"loss_changes":[5.802654E2,1.5100922E1,2.157228E1,0E0,0E0,0E0,0E0],"parents":[2147483647,0,0,1,1,2,2],"right_children":[2,4,6,-1,-1,-1,-1],"split_conditions":[1.6503973E-1,1.4562328E-1,2.2505417E-1,-5.9918106E-2,-1.2021608E-2,2.0167807E-2,4.4640582E-2],"split_indices":[1,1,1,0,0,0,0],"split_type":[0,0,0,0,0,0,0],"sum_hessian":[6.942371E2,2.679607E2,4.262764E2,2.4973848E2,1.8222202E1,1.3369124E2,2.9258517E2],"tree_param":{"num_deleted":"0","num_feature":"9","num_nodes":"7","size_leaf_vector":"1"}},{"base_weights":[-5.160228E-2,-1.1801207E0,6.285074E-1,-6.0949415E-2,-3.071835E-2,-2.7525635E-3,3.9512053E-2],"categories":[],"categories_nodes":[],"categories_segments":[],"categories_sizes":[],"default_left":[0,0,0,0,0,0,0],"id":28,"left_children":[1,3,5,-1,-1,-1,-1],"loss_changes":[4.916019E2,4.5470276E0,4.4232635E1,0E0,0E0,0E0,0E0],"parents":[2147483647,0,0,1,1,2,2],"right_children":[2,4,6,-1,-1,-1,-1],"split_conditions":[1.4562328E-1,3E0,1.9043045E-1,-6.0949415E-2,-3.071835E-2,-2.7525635E-3,3.9512053E-2],"split_indices":[1,3,1,0,0,0,0],"split_type":[0,0,0,0,0,0,0],"sum_hessian":[6.385437E2,2.3983911E2,3.9870462E2,2.2334084E2,1.6498281E1,7.641219E1,3.2229242E2],"tree_param":{"num_deleted":"0","num_feature":"9","num_nodes":"7","size_leaf_vector":"1"}},{"base_weights":[-2.206732E-2,-2.047308E-1,2.4805382E-1,-5.331858E-3,-5.450761E-2,8.290393E-4,2.3615548E-2],"categories":[],"categories_nodes":[],"categories_segments":[],"categories_sizes":[],"default_left":[0,1,0,0,0,0,0],"id":29,"left_children":[1,3,5,-1,-1,-1,-1],"loss_changes":[3.1829296E1,3.3303238E1,1.3503096E1,0E0,0E0,0E0,0E0],"parents":[2147483647,0,0,1,1,2,2],"right_children":[2,4,6,-1,-1,-1,-1],"split_conditions":[1E0,1.4865498E1,6E0,-5.331858E-3,-5.450761E-2,8.290393E-4,2.3615548E-2],"split_indices":[3,8,4,0,0,0,0],"split_type":[0,0,0,0,0,0,0],"sum_hessian":[6.430554E2,3.8377686E2,2.592786E2,3.4650848E2,3.7268383E1,1.2811508E2,1.311635E2],"tree_param":{"num_deleted":"0","num_feature":"9","num_nodes":"7","size_leaf_vector":"1"}},{"base_weights":[5.631514E-3,-1.1632557E0,6.715167E-1,-5.9945114E-2,-3.1206524E-2,7.5865104E-3,4.1839745E-2],"categories":[],"categories_nodes":[],"categories_segments":[],"categories_sizes":[],"default_left":[0,0,0,0,0,0,0],"id":30,"left_children":[1,3,5,-1,-1,-1,-1],"loss_changes":[5.047777E2,3.7750244E0,3.5366898E1,0E0,0E0,0E0,0E0],"parents":[2147483647,0,0,1,1,2,2],"right_children":[2,4,6,-1,-1,-1,-1],"split_conditions":[1.4562328E-1,1.5E1,2.0629966E-1,-5.9945114E-2,-3.1206524E-2,7.5865104E-3,4.1839745E-2],"split_indices":[1,5,1,0,0,0,0],"split_type":[0,0,0,0,0,0,0],"sum_hessian":[6.4652356E2,2.3436865E2,4.1215494E2,2.1868552E2,1.5683134E1,9.9898895E1,3.1225604E2],"tree_param":{"num_deleted":"0","num_feature":"9","num_nodes":"7","size_leaf_vector":"1"}},{"base_weights":[1.4164302E-2,-1.1446829E0,6.402608E-1,-5.9193224E-2,-2.4278974E-2,6.658401E-3,4.0042497E-2],"categories":[],"categories_nodes":[],"categories_segments":[],"categories_sizes":[],"default_left":[0,0,0,0,0,0,0],"id":31,"left_children":[1,3,5,-1,-1,-1,-1],"loss_changes":[4.6315674E2,5.2077026E0,3.364154E1,0E0,0E0,0E0,0E0],"parents":[2147483647,0,0,1,1,2,2],"right_children":[2,4,6,-1,-1,-1,-1],"split_conditions":[1.4562328E-1,2.7E1,2.0629966E-1,-5.9193224E-2,-2.4278974E-2,6.658401E-3,4.0042497E-2],"split_indices":[1,2,1,0,0,0,0],"split_type":[0,0,0,0,0,0,0],"sum_hessian":[6.363422E2,2.229163E2,4.134259E2,2.0965674E2,1.3259574E1,9.9876076E1,3.1354984E2],"tree_param":{"num_deleted":"0","num_feature":"9","num_nodes":"7","size_leaf_vector":"1"}},{"base_weights":[-3.4110197E-3,-1.1312131E0,5.890046E-1,-5.8696713E-2,-2.846663E-2,1.2934311E-2,3.9272808E-2],"categories":[],"categories_nodes":[],"categories_segments":[],"categories_sizes":[],"default_left":[0,0,0,0,0,0,0],"id":32,"left_children":[1,3,5,-1,-1,-1,-1],"loss_changes":[4.141235E2,4.4555054E0,2.6166931E1,0E0,0E0,0E0,0E0],"parents":[2147483647,0,0,1,1,2,2],"right_children":[2,4,6,-1,-1,-1,-1],"split_conditions":[1.4562328E-1,3E0,2.2505417E-1,-5.8696713E-2,-2.846663E-2,1.2934311E-2,3.9272808E-2],"split_indices":[1,3,1,0,0,0,0],"split_type":[0,0,0,0,0,0,0],"sum_hessian":[6.178298E2,2.1245753E2,4.0537222E2,1.9643294E2,1.6024595E1,1.5204196E2,2.5333028E2],"tree_param":{"num_deleted":"0","num_feature":"9","num_nodes":"7","size_leaf_vector":"1"}},{"base_weights":[3.2014523E-2,-1.0608125E0,6.557332E-1,-5.6123924E-2,-2.0363873E-2,1.7653398E-2,3.9833073E-2],"categories":[],"categories_nodes":[],"categories_segments":[],"categories_sizes":[],"default_left":[0,0,0,0,0,0,0],"id":33,"left_children":[1,3,5,-1,-1,-1,-1],"loss_changes":[4.25821E2,8.691467E0,1.6681961E1,0E0,0E0,0E0,0E0],"parents":[2147483647,0,0,1,1,2,2],"right_children":[2,4,6,-1,-1,-1,-1],"split_conditions":[1.7682828E-1,2.5E1,2.2505417E-1,-5.6123924E-2,-2.0363873E-2,1.7653398E-2,3.9833073E-2],"split_indices":[1,2,1,0,0,0,0],"split_type":[0,0,0,0,0,0,0],"sum_hessian":[6.227016E2,2.2600827E2,3.966933E2,2.0586575E2,2.0142515E1,1.2714176E2,2.6955154E2],"tree_param":{"num_deleted":"0","num_feature":"9","num_nodes":"7","size_leaf_vector":"1"}},{"base_weights":[-2.2065165E-2,-1.0324084E0,5.975115E-1,-5.6498498E-2,-1.2337186E-2,3.1626314E-2,-3.258778E-2],"categories":[],"categories_nodes":[],"categories_segments":[],"categories_sizes":[],"default_left":[0,0,1,0,0,0,0],"id":34,"left_children":[1,3,5,-1,-1,-1,-1],"loss_changes":[3.660711E2,1.6759674E1,1.6269897E1,0E0,0E0,0E0,0E0],"parents":[2147483647,0,0,1,1,2,2],"right_children":[2,4,6,-1,-1,-1,-1],"split_conditions":[1.7682828E-1,1.4562328E-1,2.38725E1,-5.6498498E-2,-1.2337186E-2,3.1626314E-2,-3.258778E-2],"split_indices":[1,1,7,0,0,0,0],"split_type":[0,0,0,0,0,0,0],"sum_hessian":[5.828067E2,2.2128731E2,3.6151938E2,1.9645398E2,2.4833323E1,3.521431E2,9.376287E0],"tree_param":{"num_deleted":"0","num_feature":"9","num_nodes":"7","size_leaf_vector":"1"}},{"base_weights":[1.58867E-2,-1.0895152E0,5.547552E-1,-5.6898702E-2,-2.2543414E-2,3.3134685E-3,3.402784E-2],"categories":[],"categories_nodes":[],"categories_segments":[],"categories_sizes":[],"default_left":[0,0,0,0,0,0,0],"id":35,"left_children":[1,3,5,-1,-1,-1,-1],"loss_changes":[3.531841E2,5.5007935E0,2.4449028E1,0E0,0E0,0E0,0E0],"parents":[2147483647,0,0,1,1,2,2],"right_children":[2,4,6,-1,-1,-1,-1],"split_conditions":[1.4562328E-1,3E0,1.9043045E-1,-5.6898702E-2,-2.2543414E-2,3.3134685E-3,3.402784E-2],"split_indices":[1,3,1,0,0,0,0],"split_type":[0,0,0,0,0,0,0],"sum_hessian":[5.9090814E2,1.9332048E2,3.9758768E2,1.7895964E2,1.4360831E1,8.173575E1,3.1585193E2],"tree_param":{"num_deleted":"0","num_feature":"9","num_nodes":"7","size_leaf_vector":"1"}},{"base_weights":[2.8869562E-2,-1.0748146E0,5.474695E-1,-5.6277484E-2,-2.2007443E-2,6.977794E-3,3.4681126E-2],"categories":[],"categories_nodes":[],"categories_segments":[],"categories_sizes":[],"default_left":[0,0,0,0,0,0,0],"id":36,"left_children":[1,3,5,-1,-1,-1,-1],"loss_changes":[3.2742746E2,5.393265E0,2.3103348E1,0E0,0E0,0E0,0E0],"parents":[2147483647,0,0,1,1,2,2],"right_children":[2,4,6,-1,-1,-1,-1],"split_conditions":[1.4562328E-1,3E0,2.0629966E-1,-5.6277484E-2,-2.2007443E-2,6.977794E-3,3.4681126E-2],"split_indices":[1,3,1,0,0,0,0],"split_type":[0,0,0,0,0,0,0],"sum_hessian":[5.70027E2,1.8187921E2,3.8814777E2,1.6769984E2,1.417938E1,1.02902214E2,2.8524554E2],"tree_param":{"num_deleted":"0","num_feature":"9","num_nodes":"7","size_leaf_vector":"1"}},{"base_weights":[-3.7108798E-2,-1.0461068E0,5.145338E-1,-5.6305796E-2,-1.5111526E-2,9.669457E-3,3.386717E-2],"categories":[],"categories_nodes":[],"categories_segments":[],"categories_sizes":[],"default_left":[0,0,0,0,0,0,0],"id":37,"left_children":[1,3,5,-1,-1,-1,-1],"loss_changes":[3.0571368E2,1.121373E1,1.843808E1,0E0,0E0,0E0,0E0],"parents":[2147483647,0,0,1,1,2,2],"right_children":[2,4,6,-1,-1,-1,-1],"split_conditions":[1.6503973E-1,1.4562328E-1,2.2505417E-1,-5.6305796E-2,-1.5111526E-2,9.669457E-3,3.386717E-2],"split_indices":[1,1,1,0,0,0,0],"split_type":[0,0,0,0,0,0,0],"sum_hessian":[5.4727875E2,1.9313083E2,3.5414792E2,1.7391156E2,1.921927E1,1.19876755E2,2.3427115E2],"tree_param":{"num_deleted":"0","num_feature":"9","num_nodes":"7","size_leaf_vector":"1"}},{"base_weights":[1.841441E-2,-1.0405899E0,5.247683E-1,-5.4555953E-2,-2.1389816E-2,4.0449984E-3,3.3974692E-2],"categories":[],"categories_nodes":[],"categories_segments":[],"categories_sizes":[],"default_left":[0,0,0,0,0,0,0],"id":38,"left_children":[1,3,5,-1,-1,-1,-1],"loss_changes":[2.9051166E2,4.9597626E0,2.5115036E1,0E0,0E0,0E0,0E0],"parents":[2147483647,0,0,1,1,2,2],"right_children":[2,4,6,-1,-1,-1,-1],"split_conditions":[1.5111287E-1,3E0,2.0629966E-1,-5.4555953E-2,-2.1389816E-2,4.0449984E-3,3.3974692E-2],"split_indices":[1,3,1,0,0,0,0],"split_type":[0,0,0,0,0,0,0],"sum_hessian":[5.397476E2,1.7425345E2,3.654942E2,1.6025845E2,1.3994995E1,9.486721E1,2.7062698E2],"tree_param":{"num_deleted":"0","num_feature":"9","num_nodes":"7","size_leaf_vector":"1"}},{"base_weights":[-2.5480948E-2,-2.3117992E-1,2.5721422E-1,-5.9476043E-3,-4.1000944E-2,3.3715044E-3,2.1805597E-2],"categories":[],"categories_nodes":[],"categories_segments":[],"categories_sizes":[],"default_left":[0,0,0,0,0,0,0],"id":39,"left_children":[1,3,5,-1,-1,-1,-1],"loss_changes":[2.9816032E1,1.951116E1,7.304097E0,0E0,0E0,0E0,0E0],"parents":[2147483647,0,0,1,1,2,2],"right_children":[2,4,6,-1,-1,-1,-1],"split_conditions":[1E0,3E1,1.6E1,-5.9476043E-3,-4.1000944E-2,3.3715044E-3,2.1805597E-2],"split_indices":[3,0,2,0,0,0,0],"split_type":[0,0,0,0,0,0,0],"sum_hessian":[5.1071997E2,2.9572342E2,2.1499657E2,2.4939316E2,4.633026E1,1.0499222E2,1.1000435E2],"tree_param":{"num_deleted":"0","num_feature":"9","num_nodes":"7","size_leaf_vector":"1"}},{"base_weights":[2.4259472E-2,-4.2185657E-2,6.337378E-1,-4.6099728E-4,-4.164796E-2,-6.0604776E-5,3.670515E-2],"categories":[],"categories_nodes":[],"categories_segments":[],"categories_sizes":[],"default_left":[0,1,0,0,0,0,0],"id":40,"left_children":[1,3,5,-1,-1,-1,-1],"loss_changes":[2.1603916E1,1.254092E1,3.3426723E0,0E0,0E0,0E0,0E0],"parents":[2147483647,0,0,1,1,2,2],"right_children":[2,4,6,-1,-1,-1,-1],"split_conditions":[2.9E1,2.38725E1,1.1E1,-4.6099728E-4,-4.164796E-2,-6.0604776E-5,3.670515E-2],"split_indices":[2,7,6,0,0,0,0],"split_type":[0,0,0,0,0,0,0],"sum_hessian":[5.318111E2,4.803719E2,5.14392E1,4.6211877E2,1.8253117E1,7.1559234E0,4.428328E1],"tree_param":{"num_deleted":"0","num_feature":"9","num_nodes":"7","size_leaf_vector":"1"}},{"base_weights":[1.954105E-2,-1.0373161E0,4.9146214E-1,-5.4620482E-2,-1.7882235E-2,1.7042666E-3,3.2902587E-2],"categories":[],"categories_nodes":[],"categories_segments":[],"categories_sizes":[],"default_left":[0,0,0,0,0,0,0],"id":41,"left_children":[1,3,5,-1,-1,-1,-1],"loss_changes":[2.6323898E2,5.710373E0,2.777629E1,0E0,0E0,0E0,0E0],"parents":[2147483647,0,0,1,1,2,2],"right_children":[2,4,6,-1,-1,-1,-1],"split_conditions":[1.4562328E-1,1.5E1,2.0629966E-1,-5.4620482E-2,-1.7882235E-2,1.7042666E-3,3.2902587E-2],"split_indices":[1,5,1,0,0,0,0],"split_type":[0,0,0,0,0,0,0],"sum_hessian":[5.2577185E2,1.6193156E2,3.6384033E2,1.4922801E2,1.2703543E1,9.746148E1,2.6637885E2],"tree_param":{"num_deleted":"0","num_feature":"9","num_nodes":"7","size_leaf_vector":"1"}},{"base_weights":[-5.4418124E-2,-1.0010074E0,4.4828084E-1,-5.2301854E-2,1.39524685E-2,1.4715018E-2,3.8587894E-2],"categories":[],"categories_nodes":[],"categories_segments":[],"categories_sizes":[],"default_left":[0,0,0,0,0,0,0],"id":42,"left_children":[1,3,5,-1,-1,-1,-1],"loss_changes":[2.4143677E2,1.0434998E1,1.628289E1,0E0,0E0,0E0,0E0],"parents":[2147483647,0,0,1,1,2,2],"right_children":[2,4,6,-1,-1,-1,-1],"split_conditions":[1.6503973E-1,2.2E1,1.3E1,-5.2301854E-2,1.39524685E-2,1.4715018E-2,3.8587894E-2],"split_indices":[1,5,2,0,0,0,0],"split_type":[0,0,0,0,0,0,0],"sum_hessian":[5.0543753E2,1.7497182E2,3.304657E2,1.6920245E2,5.7693634E0,2.251841E2,1.052816E2],"tree_param":{"num_deleted":"0","num_feature":"9","num_nodes":"7","size_leaf_vector":"1"}},{"base_weights":[2.2683226E-2,-1.0909257E0,4.8562655E-1,-3.29153E-2,-5.624448E-2,1.1645612E-2,3.259558E-2],"categories":[],"categories_nodes":[],"categories_segments":[],"categories_sizes":[],"default_left":[0,0,0,0,0,0,0],"id":43,"left_children":[1,3,5,-1,-1,-1,-1],"loss_changes":[2.6528326E2,1.4797668E0,1.5120865E1,0E0,0E0,0E0,0E0],"parents":[2147483647,0,0,1,1,2,2],"right_children":[2,4,6,-1,-1,-1,-1],"split_conditions":[1.4562328E-1,4.7318286E-1,2.2505417E-1,-3.29153E-2,-5.624448E-2,1.1645612E-2,3.259558E-2],"split_indices":[1,8,1,0,0,0,0],"split_type":[0,0,0,0,0,0,0],"sum_hessian":[5.125481E2,1.5010777E2,3.6244034E2,1.2410446E1,1.3769733E2,1.4479164E2,2.1764871E2],"tree_param":{"num_deleted":"0","num_feature":"9","num_nodes":"7","size_leaf_vector":"1"}},{"base_weights":[2.646688E-3,-1.0434031E0,4.3109182E-1,-5.5642296E-2,-1.5706195E-2,1.3087082E-3,2.7329365E-2],"categories":[],"categories_nodes":[],"categories_segments":[],"categories_sizes":[],"default_left":[0,0,0,0,0,0,0],"id":44,"left_children":[1,3,5,-1,-1,-1,-1],"loss_changes":[2.1976381E2,6.8661957E0,1.6254059E1,0E0,0E0,0E0,0E0],"parents":[2147483647,0,0,1,1,2,2],"right_children":[2,4,6,-1,-1,-1,-1],"split_conditions":[1.4562328E-1,3E0,1.9043045E-1,-5.5642296E-2,-1.5706195E-2,1.3087082E-3,2.7329365E-2],"split_indices":[1,3,1,0,0,0,0],"split_type":[0,0,0,0,0,0,0],"sum_hessian":[4.8834906E2,1.414829E2,3.4686615E2,1.2870183E2,1.27810755E1,7.7252335E1,2.6961383E2],"tree_param":{"num_deleted":"0","num_feature":"9","num_nodes":"7","size_leaf_vector":"1"}},{"base_weights":[-1.5851915E-2,-9.9311227E-1,3.914489E-1,-5.306971E-2,-1.2731309E-2,4.8242826E-3,2.4080954E-2],"categories":[],"categories_nodes":[],"categories_segments":[],"categories_sizes":[],"default_left":[0,0,0,0,0,0,0],"id":45,"left_children":[1,3,5,-1,-1,-1,-1],"loss_changes":[1.8918626E2,6.7799225E0,8.876915E0,0E0,0E0,0E0,0E0],"parents":[2147483647,0,0,1,1,2,2],"right_children":[2,4,6,-1,-1,-1,-1],"split_conditions":[1.4562328E-1,3E0,1.9043045E-1,-5.306971E-2,-1.2731309E-2,4.8242826E-3,2.4080954E-2],"split_indices":[1,3,1,0,0,0,0],"split_type":[0,0,0,0,0,0,0],"sum_hessian":[4.7331918E2,1.3881471E2,3.3450446E2,1.2666569E2,1.2149032E1,7.880122E1,2.5570323E2],"tree_param":{"num_deleted":"0","num_feature":"9","num_nodes":"7","size_leaf_vector":"1"}},{"base_weights":[1.9982813E-2,-1.0231221E0,4.193008E-1,-4.0741935E-2,-5.5286128E-2,9.813716E-3,2.8287342E-2],"categories":[],"categories_nodes":[],"categories_segments":[],"categories_sizes":[],"default_left":[0,0,0,0,0,0,0],"id":46,"left_children":[1,3,5,-1,-1,-1,-1],"loss_changes":[2.0060265E2,1.3928986E0,1.12630005E1,0E0,0E0,0E0,0E0],"parents":[2147483647,0,0,1,1,2,2],"right_children":[2,4,6,-1,-1,-1,-1],"split_conditions":[1.4562328E-1,1.05399705E-1,2.2505417E-1,-4.0741935E-2,-5.5286128E-2,9.813716E-3,2.8287342E-2],"split_indices":[1,1,1,0,0,0,0],"split_type":[0,0,0,0,0,0,0],"sum_hessian":[4.7957376E2,1.3233194E2,3.4724182E2,4.0662678E1,9.1669266E1,1.3856213E2,2.0867967E2],"tree_param":{"num_deleted":"0","num_feature":"9","num_nodes":"7","size_leaf_vector":"1"}},{"base_weights":[3.264321E-2,-9.707794E-1,4.0606707E-1,-5.2132674E-2,-1.0734581E-2,1.1015914E-3,2.774462E-2],"categories":[],"categories_nodes":[],"categories_segments":[],"categories_sizes":[],"default_left":[0,0,0,0,0,0,0],"id":47,"left_children":[1,3,5,-1,-1,-1,-1],"loss_changes":[1.765575E2,6.7214813E0,1.9610916E1,0E0,0E0,0E0,0E0],"parents":[2147483647,0,0,1,1,2,2],"right_children":[2,4,6,-1,-1,-1,-1],"split_conditions":[1.4562328E-1,1.5E1,2.0629966E-1,-5.2132674E-2,-1.0734581E-2,1.1015914E-3,2.774462E-2],"split_indices":[1,5,1,0,0,0,0],"split_type":[0,0,0,0,0,0,0],"sum_hessian":[4.6914246E2,1.2680544E2,3.42337E2,1.1545156E2,1.135388E1,9.593367E1,2.4640334E2],"tree_param":{"num_deleted":"0","num_feature":"9","num_nodes":"7","size_leaf_vector":"1"}},{"base_weights":[2.1048885E-2,-9.6301085E-1,3.9321753E-1,-5.1805563E-2,-1.0885148E-2,8.2961675E-3,2.8015906E-2],"categories":[],"categories_nodes":[],"categories_segments":[],"categories_sizes":[],"default_left":[0,0,0,0,0,0,0],"id":48,"left_children":[1,3,5,-1,-1,-1,-1],"loss_changes":[1.6786559E2,6.627487E0,1.253701E1,0E0,0E0,0E0,0E0],"parents":[2147483647,0,0,1,1,2,2],"right_children":[2,4,6,-1,-1,-1,-1],"split_conditions":[1.4562328E-1,2.7E1,2.2505417E-1,-5.1805563E-2,-1.0885148E-2,8.2961675E-3,2.8015906E-2],"split_indices":[1,2,1,0,0,0,0],"split_type":[0,0,0,0,0,0,0],"sum_hessian":[4.5631937E2,1.2478497E2,3.315344E2,1.1328382E2,1.1501154E1,1.4131175E2,1.9022266E2],"tree_param":{"num_deleted":"0","num_feature":"9","num_nodes":"7","size_leaf_vector":"1"}},{"base_weights":[2.2107903E-2,-9.518815E-1,3.669116E-1,-5.1407933E-2,-1.06942905E-2,2.276306E-4,2.4225552E-2],"categories":[],"categories_nodes":[],"categories_segments":[],"categories_sizes":[],"default_left":[0,0,0,0,0,0,0],"id":49,"left_children":[1,3,5,-1,-1,-1,-1],"loss_changes":[1.5322359E2,6.495407E0,1.4354725E1,0E0,0E0,0E0,0E0],"parents":[2147483647,0,0,1,1,2,2],"right_children":[2,4,6,-1,-1,-1,-1],"split_conditions":[1.4562328E-1,1.5E1,1.9043045E-1,-5.1407933E-2,-1.06942905E-2,2.276306E-4,2.4225552E-2],"split_indices":[1,5,1,0,0,0,0],"split_type":[0,0,0,0,0,0,0],"sum_hessian":[4.5420648E2,1.18293755E2,3.3591272E2,1.0685622E2,1.1437538E1,8.255986E1,2.5335287E2],"tree_param":{"num_deleted":"0","num_feature":"9","num_nodes":"7","size_leaf_vector":"1"}},{"base_weights":[1.6443014E-2,1.09745935E-1,-3.1720576E-1,5.6099106E-4,2.5575554E-2,9.138233E-3,-2.5974939E-2],"categories":[],"categories_nodes":[],"categories_segments":[],"categories_sizes":[],"default_left":[1,0,0,0,0,0,0],"id":50,"left_children":[1,3,5,-1,-1,-1,-1],"loss_changes":[1.3887881E1,1.3789286E1,9.956589E0,0E0,0E0,0E0,0E0],"parents":[2147483647,0,0,1,1,2,2],"right_children":[2,4,6,-1,-1,-1,-1],"split_conditions":[6.9868174E0,7E0,1E0,5.6099106E-4,2.5575554E-2,9.138233E-3,-2.5974939E-2],"split_indices":[8,4,4,0,0,0,0],"split_type":[0,0,0,0,0,0,0],"sum_hessian":[4.4400125E2,3.474969E2,9.650439E1,2.798872E2,6.760968E1,2.7826725E1,6.8677666E1],"tree_param":{"num_deleted":"0","num_feature":"9","num_nodes":"7","size_leaf_vector":"1"}},{"base_weights":[1.1697536E-3,-9.4200623E-1,3.418834E-1,-5.1225305E-2,-7.97439E-3,8.7119145E-3,3.476081E-2],"categories":[],"categories_nodes":[],"categories_segments":[],"categories_sizes":[],"default_left":[0,0,0,0,0,0,0],"id":51,"left_children":[1,3,5,-1,-1,-1,-1],"loss_changes":[1.3903378E2,7.248825E0,1.8705578E1,0E0,0E0,0E0,0E0],"parents":[2147483647,0,0,1,1,2,2],"right_children":[2,4,6,-1,-1,-1,-1],"split_conditions":[1.4562328E-1,3E0,1.3E1,-5.1225305E-2,-7.97439E-3,8.7119145E-3,3.476081E-2],"split_indices":[1,3,2,0,0,0,0],"split_type":[0,0,0,0,0,0,0],"sum_hessian":[4.3064917E2,1.1381567E2,3.168335E2,1.02680916E2,1.1134746E1,2.1589253E2,1.0094097E2],"tree_param":{"num_deleted":"0","num_feature":"9","num_nodes":"7","size_leaf_vector":"1"}},{"base_weights":[-2.0498497E-2,-1.0312225E0,3.2435927E-1,-4.154831E-2,-5.4231342E-2,1.0173257E-2,2.9885797E-2],"categories":[],"categories_nodes":[],"categories_segments":[],"categories_sizes":[],"default_left":[0,0,0,0,0,0,0],"id":52,"left_children":[1,3,5,-1,-1,-1,-1],"loss_changes":[1.491702E2,2.6300812E-1,1.0424992E1,0E0,0E0,0E0,0E0],"parents":[2147483647,0,0,1,1,2,2],"right_children":[2,4,6,-1,-1,-1,-1],"split_conditions":[1.4562328E-1,1E0,1.3E1,-4.154831E-2,-5.4231342E-2,1.0173257E-2,2.9885797E-2],"split_indices":[1,2,2,0,0,0,0],"split_type":[0,0,0,0,0,0,0],"sum_hessian":[4.2600656E2,1.0786904E2,3.181375E2,2.6196611E1,8.167243E1,2.217924E2,9.6345116E1],"tree_param":{"num_deleted":"0","num_feature":"9","num_nodes":"7","size_leaf_vector":"1"}},{"base_weights":[1.5945698E-3,-1.0258157E0,3.3369043E-1,-2.2271356E-2,-5.3816963E-2,1.07081365E-2,3.0527055E-2],"categories":[],"categories_nodes":[],"categories_segments":[],"categories_sizes":[],"default_left":[0,0,0,0,0,0,0],"id":53,"left_children":[1,3,5,-1,-1,-1,-1],"loss_changes":[1.4694951E2,2.6055756E0,1.0639671E1,0E0,0E0,0E0,0E0],"parents":[2147483647,0,0,1,1,2,2],"right_children":[2,4,6,-1,-1,-1,-1],"split_conditions":[1.4562328E-1,4.7318286E-1,1.3E1,-2.2271356E-2,-5.3816963E-2,1.07081365E-2,3.0527055E-2],"split_indices":[1,8,2,0,0,0,0],"split_type":[0,0,0,0,0,0,0],"sum_hessian":[4.286828E2,1.0420701E2,3.2447577E2,9.131E0,9.507601E1,2.27869E2,9.660677E1],"tree_param":{"num_deleted":"0","num_feature":"9","num_nodes":"7","size_leaf_vector":"1"}},{"base_weights":[-1.6702635E-2,-9.658792E-1,2.9298067E-1,-5.314997E-2,-7.3028426E-3,3.5450794E-3,2.2899961E-2],"categories":[],"categories_nodes":[],"categories_segments":[],"categories_sizes":[],"default_left":[0,0,0,0,0,0,0],"id":54,"left_children":[1,3,5,-1,-1,-1,-1],"loss_changes":[1.2204435E2,7.976883E0,1.1441669E1,0E0,0E0,0E0,0E0],"parents":[2147483647,0,0,1,1,2,2],"right_children":[2,4,6,-1,-1,-1,-1],"split_conditions":[1.4562328E-1,1.5E1,2.2505417E-1,-5.314997E-2,-7.3028426E-3,3.5450794E-3,2.2899961E-2],"split_indices":[1,5,1,0,0,0,0],"split_type":[0,0,0,0,0,0,0],"sum_hessian":[4.13233E2,1.011353E2,3.1209772E2,9.0158104E1,1.097719E1,1.3365575E2,1.7844196E2],"tree_param":{"num_deleted":"0","num_feature":"9","num_nodes":"7","size_leaf_vector":"1"}},{"base_weights":[2.9870786E-2,-8.8590175E-1,3.3457083E-1,-4.887403E-2,-1.4125707E-3,-1.5768731E-3,2.2107253E-2],"categories":[],"categories_nodes":[],"categories_segments":[],"categories_sizes":[],"default_left":[0,0,0,0,0,0,0],"id":55,"left_children":[1,3,5,-1,-1,-1,-1],"loss_changes":[1.1277765E2,7.898346E0,1.1954884E1,0E0,0E0,0E0,0E0],"parents":[2147483647,0,0,1,1,2,2],"right_children":[2,4,6,-1,-1,-1,-1],"split_conditions":[1.5111287E-1,2.7E1,1.9043045E-1,-4.887403E-2,-1.4125707E-3,-1.5768731E-3,2.2107253E-2],"split_indices":[1,2,1,0,0,0,0],"split_type":[0,0,0,0,0,0,0],"sum_hessian":[4.0210672E2,9.991272E1,3.02194E2,9.014719E1,9.765531E0,6.8789375E1,2.3340463E2],"tree_param":{"num_deleted":"0","num_feature":"9","num_nodes":"7","size_leaf_vector":"1"}},{"base_weights":[1.3216115E-3,-6.828476E-2,5.136216E-1,5.9261024E-3,-1.061131E-2,6.1612796E-2,1.4831564E-2],"categories":[],"categories_nodes":[],"categories_segments":[],"categories_sizes":[],"default_left":[0,1,0,0,0,0,0],"id":56,"left_children":[1,3,5,-1,-1,-1,-1],"loss_changes":[1.4313539E1,9.527788E0,7.121599E0,0E0,0E0,0E0,0E0],"parents":[2147483647,0,0,1,1,2,2],"right_children":[2,4,6,-1,-1,-1,-1],"split_conditions":[3E0,1.009838E-1,2.5416666E-1,5.9261024E-3,-1.061131E-2,6.1612796E-2,1.4831564E-2],"split_indices":[3,8,7,0,0,0,0],"split_type":[0,0,0,0,0,0,0],"sum_hessian":[3.9941302E2,3.5239917E2,4.7013878E1,1.5344075E2,1.989584E2,9.818352E0,3.7195526E1],"tree_param":{"num_deleted":"0","num_feature":"9","num_nodes":"7","size_leaf_vector":"1"}},{"base_weights":[3.693939E-2,6.5790184E-2,-7.070658E-1,-6.8606826E-4,1.4188646E-2,-6.9901794E-2,8.5617155E-3],"categories":[],"categories_nodes":[],"categories_segments":[],"categories_sizes":[],"default_left":[1,0,0,0,0,0,0],"id":57,"left_children":[1,3,5,-1,-1,-1,-1],"loss_changes":[8.746351E0,6.782244E0,9.473079E0,0E0,0E0,0E0,0E0],"parents":[2147483647,0,0,1,1,2,2],"right_children":[2,4,6,-1,-1,-1,-1],"split_conditions":[2.38725E1,1.5E1,2E0,-6.8606826E-4,1.4188646E-2,-6.9901794E-2,8.5617155E-3],"split_indices":[7,2,6,0,0,0,0],"split_type":[0,0,0,0,0,0,0],"sum_hessian":[4.0430054E2,3.900855E2,1.4215037E1,2.865136E2,1.0357188E2,7.624776E0,6.590261E0],"tree_param":{"num_deleted":"0","num_feature":"9","num_nodes":"7","size_leaf_vector":"1"}},{"base_weights":[5.1444285E-2,-8.805049E-1,3.2085225E-1,-4.9231198E-2,2.8558823E-3,4.374261E-3,2.5313029E-2],"categories":[],"categories_nodes":[],"categories_segments":[],"categories_sizes":[],"default_left":[0,0,0,0,0,0,0],"id":58,"left_children":[1,3,5,-1,-1,-1,-1],"loss_changes":[1.02044945E2,8.955528E0,1.3591644E1,0E0,0E0,0E0,0E0],"parents":[2147483647,0,0,1,1,2,2],"right_children":[2,4,6,-1,-1,-1,-1],"split_conditions":[1.4562328E-1,2.7E1,2.2505417E-1,-4.9231198E-2,2.8558823E-3,4.374261E-3,2.5313029E-2],"split_indices":[1,2,1,0,0,0,0],"split_type":[0,0,0,0,0,0,0],"sum_hessian":[4.0430768E2,9.015854E1,3.1414914E2,8.110234E1,9.0562E0,1.3973784E2,1.744113E2],"tree_param":{"num_deleted":"0","num_feature":"9","num_nodes":"7","size_leaf_vector":"1"}},{"base_weights":[1.2072029E-2,-9.410918E-1,2.8803796E-1,-5.2744236E-2,-6.8943686E-4,1.6106911E-2,-2.5637118E-2],"categories":[],"categories_nodes":[],"categories_segments":[],"categories_sizes":[],"default_left":[0,0,1,0,0,0,0],"id":59,"left_children":[1,3,5,-1,-1,-1,-1],"loss_changes":[1.0478413E2,9.423492E0,8.599813E0,0E0,0E0,0E0,0E0],"parents":[2147483647,0,0,1,1,2,2],"right_children":[2,4,6,-1,-1,-1,-1],"split_conditions":[1.4562328E-1,3E0,2.38725E1,-5.2744236E-2,-6.8943686E-4,1.6106911E-2,-2.5637118E-2],"split_indices":[1,3,7,0,0,0,0],"split_type":[0,0,0,0,0,0,0],"sum_hessian":[3.963265E2,8.844265E1,3.0788388E2,7.865323E1,9.789421E0,2.958818E2,1.2002049E1],"tree_param":{"num_deleted":"0","num_feature":"9","num_nodes":"7","size_leaf_vector":"1"}},{"base_weights":[-1.978695E-2,-8.7121075E-1,2.3045021E-1,-4.886484E-2,-3.544918E-3,5.362731E-4,1.9572292E-2],"categories":[],"categories_nodes":[],"categories_segments":[],"categories_sizes":[],"default_left":[0,0,0,0,0,0,0],"id":60,"left_children":[1,3,5,-1,-1,-1,-1],"loss_changes":[8.274223E1,7.419777E0,1.061547E1,0E0,0E0,0E0,0E0],"parents":[2147483647,0,0,1,1,2,2],"right_children":[2,4,6,-1,-1,-1,-1],"split_conditions":[1.4562328E-1,3E0,2.2505417E-1,-4.886484E-2,-3.544918E-3,5.362731E-4,1.9572292E-2],"split_indices":[1,3,1,0,0,0,0],"split_type":[0,0,0,0,0,0,0],"sum_hessian":[3.8641333E2,8.720832E1,2.9920502E2,7.680608E1,1.0402236E1,1.2697618E2,1.7222884E2],"tree_param":{"num_deleted":"0","num_feature":"9","num_nodes":"7","size_leaf_vector":"1"}},{"base_weights":[5.3904164E-3,-1.3334593E-1,1.9497287E-1,7.026111E-4,-3.600125E-2,-2.838306E-3,1.8870352E-2],"categories":[],"categories_nodes":[],"categories_segments":[],"categories_sizes":[],"default_left":[0,0,0,0,0,0,0],"id":61,"left_children":[1,3,5,-1,-1,-1,-1],"loss_changes":[1.0218244E1,1.9411276E1,7.5603323E0,0E0,0E0,0E0,0E0],"parents":[2147483647,0,0,1,1,2,2],"right_children":[2,4,6,-1,-1,-1,-1],"split_conditions":[1E0,3E0,1.3E1,7.026111E-4,-3.600125E-2,-2.838306E-3,1.8870352E-2],"split_indices":[3,6,2,0,0,0,0],"split_type":[0,0,0,0,0,0,0],"sum_hessian":[3.865087E2,2.2335457E2,1.6315413E2,1.7928642E2,4.4068146E1,6.884477E1,9.430936E1],"tree_param":{"num_deleted":"0","num_feature":"9","num_nodes":"7","size_leaf_vector":"1"}},{"base_weights":[1.8837716E-2,-8.554096E-1,2.5343937E-1,-4.829327E-2,-9.467336E-4,-3.1421482E-4,2.2233142E-2],"categories":[],"categories_nodes":[],"categories_segments":[],"categories_sizes":[],"default_left":[0,0,0,0,0,0,0],"id":62,"left_children":[1,3,5,-1,-1,-1,-1],"loss_changes":[8.034475E1,7.6397514E0,1.5339062E1,0E0,0E0,0E0,0E0],"parents":[2147483647,0,0,1,1,2,2],"right_children":[2,4,6,-1,-1,-1,-1],"split_conditions":[1.4562328E-1,1.5E1,2.2505417E-1,-4.829327E-2,-9.467336E-4,-3.1421482E-4,2.2233142E-2],"split_indices":[1,5,1,0,0,0,0],"split_type":[0,0,0,0,0,0,0],"sum_hessian":[3.8967773E2,8.188512E1,3.077926E2,7.21969E1,9.68822E0,1.3092911E2,1.768635E2],"tree_param":{"num_deleted":"0","num_feature":"9","num_nodes":"7","size_leaf_vector":"1"}},{"base_weights":[-1.8020483E-2,-8.4681004E-1,2.0534496E-1,-4.8125383E-2,-1.0870162E-3,1.2101951E-2,-4.152914E-2],"categories":[],"categories_nodes":[],"categories_segments":[],"categories_sizes":[],"default_left":[0,0,1,0,0,0,0],"id":63,"left_children":[1,3,5,-1,-1,-1,-1],"loss_changes":[6.946521E1,7.5829544E0,1.14391165E1,0E0,0E0,0E0,0E0],"parents":[2147483647,0,0,1,1,2,2],"right_children":[2,4,6,-1,-1,-1,-1],"split_conditions":[1.4562328E-1,3E0,2.38725E1,-4.8125383E-2,-1.0870162E-3,1.2101951E-2,-4.152914E-2],"split_indices":[1,3,7,0,0,0,0],"split_type":[0,0,0,0,0,0,0],"sum_hessian":[3.7329892E2,7.865631E1,2.946426E2,6.88369E1,9.819412E0,2.8530313E2,9.339495E0],"tree_param":{"num_deleted":"0","num_feature":"9","num_nodes":"7","size_leaf_vector":"1"}},{"base_weights":[1.5753532E-2,5.110973E-2,-9.0601385E-1,-5.230055E-4,2.2395035E-2,-7.404986E-2,7.302433E-3],"categories":[],"categories_nodes":[],"categories_segments":[],"categories_sizes":[],"default_left":[1,0,0,0,0,0,0],"id":64,"left_children":[1,3,5,-1,-1,-1,-1],"loss_changes":[1.2406912E1,8.951327E0,8.723747E0,0E0,0E0,0E0,0E0],"parents":[2147483647,0,0,1,1,2,2],"right_children":[2,4,6,-1,-1,-1,-1],"split_conditions":[2.38725E1,1.4E1,1E0,-5.230055E-4,2.2395035E-2,-7.404986E-2,7.302433E-3],"split_indices":[7,5,3,0,0,0,0],"split_type":[0,0,0,0,0,0,0],"sum_hessian":[3.7827386E2,3.6521005E2,1.3063797E1,3.1699564E2,4.8214405E1,8.18354E0,4.880256E0],"tree_param":{"num_deleted":"0","num_feature":"9","num_nodes":"7","size_leaf_vector":"1"}},{"base_weights":[3.513504E-2,-8.3072895E-1,2.7502736E-1,-4.9378872E-2,6.1575077E-3,1.6638746E-2,-1.2109461E-2],"categories":[],"categories_nodes":[],"categories_segments":[],"categories_sizes":[],"default_left":[0,0,1,0,0,0,0],"id":65,"left_children":[1,3,5,-1,-1,-1,-1],"loss_changes":[7.783903E1,1.2286732E1,8.841822E0,0E0,0E0,0E0,0E0],"parents":[2147483647,0,0,1,1,2,2],"right_children":[2,4,6,-1,-1,-1,-1],"split_conditions":[1.5111287E-1,3E0,1.2661944E1,-4.9378872E-2,6.1575077E-3,1.6638746E-2,-1.2109461E-2],"split_indices":[1,3,7,0,0,0,0],"split_type":[0,0,0,0,0,0,0],"sum_hessian":[3.726412E2,8.030968E1,2.923315E2,6.8938614E1,1.137106E1,2.6329147E2,2.9040064E1],"tree_param":{"num_deleted":"0","num_feature":"9","num_nodes":"7","size_leaf_vector":"1"}},{"base_weights":[4.3510165E-2,1.1184061E-1,-3.5863325E-1,2.9800683E-2,3.3921716E-3,-4.7467116E-2,1.474894E-3],"categories":[],"categories_nodes":[],"categories_segments":[],"categories_sizes":[],"default_left":[1,0,0,0,0,0,0],"id":66,"left_children":[1,3,5,-1,-1,-1,-1],"loss_changes":[1.0400595E1,6.8410444E0,1.2637478E1,0E0,0E0,0E0,0E0],"parents":[2147483647,0,0,1,1,2,2],"right_children":[2,4,6,-1,-1,-1,-1],"split_conditions":[1.5266192E1,1.080787E-1,2.3053217E1,2.9800683E-2,3.3921716E-3,-4.7467116E-2,1.474894E-3],"split_indices":[8,8,8,0,0,0,0],"split_type":[0,0,0,0,0,0,0],"sum_hessian":[3.7603775E2,3.2204E2,5.3997738E1,2.5781153E1,2.9625885E2,2.083792E1,3.315982E1],"tree_param":{"num_deleted":"0","num_feature":"9","num_nodes":"7","size_leaf_vector":"1"}},{"base_weights":[-1.1599831E-2,-8.303599E-1,2.0090343E-1,-3.5209637E-3,-4.8082862E-2,-1.8455647E-3,1.9373534E-2],"categories":[],"categories_nodes":[],"categories_segments":[],"categories_sizes":[],"default_left":[0,0,0,0,0,0,0],"id":67,"left_children":[1,3,5,-1,-1,-1,-1],"loss_changes":[6.40506E1,7.500904E0,1.2983926E1,0E0,0E0,0E0,0E0],"parents":[2147483647,0,0,1,1,2,2],"right_children":[2,4,6,-1,-1,-1,-1],"split_conditions":[1.4562328E-1,2.5416666E-1,2.2505417E-1,-3.5209637E-3,-4.8082862E-2,-1.8455647E-3,1.9373534E-2],"split_indices":[1,7,1,0,0,0,0],"split_type":[0,0,0,0,0,0,0],"sum_hessian":[3.66171E2,7.485448E1,2.913165E2,1.1253908E1,6.3600567E1,1.2842151E2,1.62895E2],"tree_param":{"num_deleted":"0","num_feature":"9","num_nodes":"7","size_leaf_vector":"1"}},{"base_weights":[2.8761467E-2,-8.877825E-1,2.4401148E-1,-2.5095496E-2,-5.216027E-2,2.8673816E-3,1.9862693E-2],"categories":[],"categories_nodes":[],"categories_segments":[],"categories_sizes":[],"default_left":[0,0,0,0,0,0,0],"id":68,"left_children":[1,3,5,-1,-1,-1,-1],"loss_changes":[7.325035E1,3.7117538E0,8.5750065E0,0E0,0E0,0E0,0E0],"parents":[2147483647,0,0,1,1,2,2],"right_children":[2,4,6,-1,-1,-1,-1],"split_conditions":[1.4562328E-1,1.05399705E-1,2.2505417E-1,-2.5095496E-2,-5.216027E-2,2.8673816E-3,1.9862693E-2],"split_indices":[1,1,1,0,0,0,0],"split_type":[0,0,0,0,0,0,0],"sum_hessian":[3.6919193E2,6.962047E1,2.9957147E2,2.1204578E1,4.8415894E1,1.356775E2,1.6389395E2],"tree_param":{"num_deleted":"0","num_feature":"9","num_nodes":"7","size_leaf_vector":"1"}},{"base_weights":[-3.664451E-2,-5.978334E-1,2.0699562E-1,-3.8149636E-2,1.34324385E-2,3.3249767E-3,2.739178E-2],"categories":[],"categories_nodes":[],"categories_segments":[],"categories_sizes":[],"default_left":[0,0,0,0,0,0,0],"id":69,"left_children":[1,3,5,-1,-1,-1,-1],"loss_changes":[4.9168694E1,1.5781544E1,1.1976372E1,0E0,0E0,0E0,0E0],"parents":[2147483647,0,0,1,1,2,2],"right_children":[2,4,6,-1,-1,-1,-1],"split_conditions":[1.829261E-1,1.4E1,1.3E1,-3.8149636E-2,1.34324385E-2,3.3249767E-3,2.739178E-2],"split_indices":[1,5,2,0,0,0,0],"split_type":[0,0,0,0,0,0,0],"sum_hessian":[3.577041E2,1.07845116E2,2.4985898E2,9.068011E1,1.7165014E1,1.7777448E2,7.20845E1],"tree_param":{"num_deleted":"0","num_feature":"9","num_nodes":"7","size_leaf_vector":"1"}},{"base_weights":[-7.091502E-2,-8.771813E-1,1.2207952E-1,-4.7384854E-2,1.0738672E-2,-3.7494663E-3,1.4452698E-2],"categories":[],"categories_nodes":[],"categories_segments":[],"categories_sizes":[],"default_left":[0,0,0,0,0,0,0],"id":70,"left_children":[1,3,5,-1,-1,-1,-1],"loss_changes":[5.4057987E1,5.3691673E0,9.255962E0,0E0,0E0,0E0,0E0],"parents":[2147483647,0,0,1,1,2,2],"right_children":[2,4,6,-1,-1,-1,-1],"split_conditions":[1.4562328E-1,4E0,2.2505417E-1,-4.7384854E-2,1.0738672E-2,-3.7494663E-3,1.4452698E-2],"split_indices":[1,3,1,0,0,0,0],"split_type":[0,0,0,0,0,0,0],"sum_hessian":[3.45717E2,6.608616E1,2.7963086E2,6.2201454E1,3.8847055E0,1.2850995E2,1.511209E2],"tree_param":{"num_deleted":"0","num_feature":"9","num_nodes":"7","size_leaf_vector":"1"}},{"base_weights":[-1.5098014E-2,-8.6915696E-1,1.703441E-1,-5.1396437E-2,5.802279E-3,-4.7091953E-3,1.5195168E-2],"categories":[],"categories_nodes":[],"categories_segments":[],"categories_sizes":[],"default_left":[0,0,0,0,0,0,0],"id":71,"left_children":[1,3,5,-1,-1,-1,-1],"loss_changes":[5.6770313E1,1.0121304E1,1.0435823E1,0E0,0E0,0E0,0E0],"parents":[2147483647,0,0,1,1,2,2],"right_children":[2,4,6,-1,-1,-1,-1],"split_conditions":[1.4562328E-1,3E0,2.0629966E-1,-5.1396437E-2,5.802279E-3,-4.7091953E-3,1.5195168E-2],"split_indices":[1,3,1,0,0,0,0],"split_type":[0,0,0,0,0,0,0],"sum_hessian":[3.5651227E2,6.2942383E1,2.935699E2,5.4169285E1,8.773096E0,9.8592316E1,1.9497755E2],"tree_param":{"num_deleted":"0","num_feature":"9","num_nodes":"7","size_leaf_vector":"1"}},{"base_weights":[-2.1828925E-2,-9.4893485E-2,4.804102E-1,3.41748E-3,-1.9027527E-2,6.614879E-2,1.278978E-2],"categories":[],"categories_nodes":[],"categories_segments":[],"categories_sizes":[],"default_left":[0,0,0,0,0,0,0],"id":72,"left_children":[1,3,5,-1,-1,-1,-1],"loss_changes":[1.2450312E1,1.3826361E1,7.8177624E0,0E0,0E0,0E0,0E0],"parents":[2147483647,0,0,1,1,2,2],"right_children":[2,4,6,-1,-1,-1,-1],"split_conditions":[3E0,2E0,2.5416666E-1,3.41748E-3,-1.9027527E-2,6.614879E-2,1.278978E-2],"split_indices":[3,4,7,0,0,0,0],"split_type":[0,0,0,0,0,0,0],"sum_hessian":[3.3704132E2,2.9494455E2,4.209678E1,1.8817169E2,1.0677286E2,7.831095E0,3.4265682E1],"tree_param":{"num_deleted":"0","num_feature":"9","num_nodes":"7","size_leaf_vector":"1"}},{"base_weights":[-1.8915646E-2,-8.614107E-1,1.8746527E-1,-5.346178E-2,5.4771146E-3,1.1741083E-2,-2.6624406E-2],"categories":[],"categories_nodes":[],"categories_segments":[],"categories_sizes":[],"default_left":[0,0,1,0,0,0,0],"id":73,"left_children":[1,3,5,-1,-1,-1,-1],"loss_changes":[5.9253803E1,1.3647022E1,9.460268E0,0E0,0E0,0E0,0E0],"parents":[2147483647,0,0,1,1,2,2],"right_children":[2,4,6,-1,-1,-1,-1],"split_conditions":[1.5111287E-1,1.4E1,2.37175E1,-5.346178E-2,5.4771146E-3,1.1741083E-2,-2.6624406E-2],"split_indices":[1,5,7,0,0,0,0],"split_type":[0,0,0,0,0,0,0],"sum_hessian":[3.3885538E2,6.6049995E1,2.728054E2,5.4321648E1,1.1728349E1,2.566008E2,1.62046E1],"tree_param":{"num_deleted":"0","num_feature":"9","num_nodes":"7","size_leaf_vector":"1"}},{"base_weights":[-3.9040767E-2,-6.925817E-1,1.4907658E-1,-4.347499E-2,7.238979E-3,-1.209423E-3,1.9536395E-2],"categories":[],"categories_nodes":[],"categories_segments":[],"categories_sizes":[],"default_left":[0,0,0,0,0,0,0],"id":74,"left_children":[1,3,5,-1,-1,-1,-1],"loss_changes":[4.1952232E1,1.14230995E1,1.11106615E1,0E0,0E0,0E0,0E0],"parents":[2147483647,0,0,1,1,2,2],"right_children":[2,4,6,-1,-1,-1,-1],"split_conditions":[1.6503973E-1,1.4E1,1E0,-4.347499E-2,7.238979E-3,-1.209423E-3,1.9536395E-2],"split_indices":[1,5,3,0,0,0,0],"split_type":[0,0,0,0,0,0,0],"sum_hessian":[3.3939508E2,7.525814E1,2.6413693E2,6.2099377E1,1.3158766E1,1.5436002E2,1.0977692E2],"tree_param":{"num_deleted":"0","num_feature":"9","num_nodes":"7","size_leaf_vector":"1"}},{"base_weights":[8.211073E-2,-7.451287E-1,2.4373E-1,-7.4953246E-3,-5.149692E-2,1.4318953E-2,-2.6982978E-2],"categories":[],"categories_nodes":[],"categories_segments":[],"categories_sizes":[],"default_left":[0,0,1,0,0,0,0],"id":75,"left_children":[1,3,5,-1,-1,-1,-1],"loss_changes":[4.7008274E1,9.591633E0,9.969055E0,0E0,0E0,0E0,0E0],"parents":[2147483647,0,0,1,1,2,2],"right_children":[2,4,6,-1,-1,-1,-1],"split_conditions":[1.4562328E-1,1.05399705E-1,2.37175E1,-7.4953246E-3,-5.149692E-2,1.4318953E-2,-2.6982978E-2],"split_indices":[1,1,7,0,0,0,0],"split_type":[0,0,0,0,0,0,0],"sum_hessian":[3.4924252E2,5.649019E1,2.9275235E2,1.8776217E1,3.771397E1,2.7823898E2,1.4513368E1],"tree_param":{"num_deleted":"0","num_feature":"9","num_nodes":"7","size_leaf_vector":"1"}},{"base_weights":[2.3790734E-2,-7.320528E-1,1.7171797E-1,-7.0850938E-3,-5.142004E-2,-2.9257403E-3,1.8039031E-2],"categories":[],"categories_nodes":[],"categories_segments":[],"categories_sizes":[],"default_left":[0,0,0,0,0,0,0],"id":76,"left_children":[1,3,5,-1,-1,-1,-1],"loss_changes":[3.7689594E1,9.507902E0,1.2286665E1,0E0,0E0,0E0,0E0],"parents":[2147483647,0,0,1,1,2,2],"right_children":[2,4,6,-1,-1,-1,-1],"split_conditions":[1.4562328E-1,1.05399705E-1,2.2505417E-1,-7.0850938E-3,-5.142004E-2,-2.9257403E-3,1.8039031E-2],"split_indices":[1,1,1,0,0,0,0],"split_type":[0,0,0,0,0,0,0],"sum_hessian":[3.3496225E2,5.4179573E1,2.8078268E2,1.8601645E1,3.5577927E1,1.2691782E2,1.5386485E2],"tree_param":{"num_deleted":"0","num_feature":"9","num_nodes":"7","size_leaf_vector":"1"}},{"base_weights":[6.869297E-3,-5.853576E-1,2.3181808E-1,-4.0233374E-2,1.5954556E-3,3.156578E-3,2.2907404E-2],"categories":[],"categories_nodes":[],"categories_segments":[],"categories_sizes":[],"default_left":[0,0,0,0,0,0,0],"id":77,"left_children":[1,3,5,-1,-1,-1,-1],"loss_changes":[4.458274E1,1.249692E1,9.229795E0,0E0,0E0,0E0,0E0],"parents":[2147483647,0,0,1,1,2,2],"right_children":[2,4,6,-1,-1,-1,-1],"split_conditions":[1.829261E-1,1.1E1,1E0,-4.0233374E-2,1.5954556E-3,3.156578E-3,2.2907404E-2],"split_indices":[1,6,3,0,0,0,0],"split_type":[0,0,0,0,0,0,0],"sum_hessian":[3.326346E2,9.112526E1,2.4150935E2,6.701262E1,2.411264E1,1.391088E2,1.02400566E2],"tree_param":{"num_deleted":"0","num_feature":"9","num_nodes":"7","size_leaf_vector":"1"}},{"base_weights":[-1.5050056E-2,-8.18046E-1,1.3725065E-1,1.0679664E-2,-5.139174E-2,9.402185E-3,-3.634645E-2],"categories":[],"categories_nodes":[],"categories_segments":[],"categories_sizes":[],"default_left":[0,0,1,0,0,0,0],"id":78,"left_children":[1,3,5,-1,-1,-1,-1],"loss_changes":[3.970736E1,1.1421833E1,1.2119917E1,0E0,0E0,0E0,0E0],"parents":[2147483647,0,0,1,1,2,2],"right_children":[2,4,6,-1,-1,-1,-1],"split_conditions":[1.4562328E-1,2.5416666E-1,2.37175E1,1.0679664E-2,-5.139174E-2,9.402185E-3,-3.634645E-2],"split_indices":[1,7,7,0,0,0,0],"split_type":[0,0,0,0,0,0,0],"sum_hessian":[3.2276205E2,5.07603E1,2.7200174E2,8.574913E0,4.2185387E1,2.5764105E2,1.436071E1],"tree_param":{"num_deleted":"0","num_feature":"9","num_nodes":"7","size_leaf_vector":"1"}},{"base_weights":[-1.4368417E-2,-4.0361935E-1,2.1090586E-1,-2.6153227E-2,1.683402E-2,2.6783183E-2,-3.9977455E-3],"categories":[],"categories_nodes":[],"categories_segments":[],"categories_sizes":[],"default_left":[0,0,0,0,0,0,0],"id":79,"left_children":[1,3,5,-1,-1,-1,-1],"loss_changes":[2.8564388E1,1.0734201E1,1.953708E1,0E0,0E0,0E0,0E0],"parents":[2147483647,0,0,1,1,2,2],"right_children":[2,4,6,-1,-1,-1,-1],"split_conditions":[1.9043045E-1,3E0,2.317064E-1,-2.6153227E-2,1.683402E-2,2.6783183E-2,-3.9977455E-3],"split_indices":[1,3,1,0,0,0,0],"split_type":[0,0,0,0,0,0,0],"sum_hessian":[3.2377863E2,1.1840141E2,2.0537721E2,1.0220447E2,1.6196947E1,9.6636734E1,1.0874048E2],"tree_param":{"num_deleted":"0","num_feature":"9","num_nodes":"7","size_leaf_vector":"1"}},{"base_weights":[4.3237754E-3,-6.8875015E-1,1.3148555E-1,-3.2291857E-3,-5.0805617E-2,-9.027151E-4,1.6465481E-2],"categories":[],"categories_nodes":[],"categories_segments":[],"categories_sizes":[],"default_left":[0,0,0,0,0,0,0],"id":80,"left_children":[1,3,5,-1,-1,-1,-1],"loss_changes":[2.8130444E1,1.0045414E1,7.98353E0,0E0,0E0,0E0,0E0],"parents":[2147483647,0,0,1,1,2,2],"right_children":[2,4,6,-1,-1,-1,-1],"split_conditions":[1.4562328E-1,1.05399705E-1,1E0,-3.2291857E-3,-5.0805617E-2,-9.027151E-4,1.6465481E-2],"split_indices":[1,1,3,0,0,0,0],"split_type":[0,0,0,0,0,0,0],"sum_hessian":[3.171559E2,4.8484264E1,2.6867166E2,1.709235E1,3.1391914E1,1.5352628E2,1.15145386E2],"tree_param":{"num_deleted":"0","num_feature":"9","num_nodes":"7","size_leaf_vector":"1"}},{"base_weights":[-4.9092624E-2,-7.8429925E-1,8.385334E-2,-1.5342628E-2,-5.070725E-2,-3.6969195E-5,3.264317E-2],"categories":[],"categories_nodes":[],"categories_segments":[],"categories_sizes":[],"default_left":[0,0,0,0,0,0,0],"id":81,"left_children":[1,3,5,-1,-1,-1,-1],"loss_changes":[2.997562E1,4.841858E0,1.2517689E1,0E0,0E0,0E0,0E0],"parents":[2147483647,0,0,1,1,2,2],"right_children":[2,4,6,-1,-1,-1,-1],"split_conditions":[1.4562328E-1,1.05399705E-1,2.2E1,-1.5342628E-2,-5.070725E-2,-3.6969195E-5,3.264317E-2],"split_indices":[1,1,6,0,0,0,0],"split_type":[0,0,0,0,0,0,0],"sum_hessian":[3.0500586E2,4.595729E1,2.5904855E2,1.5693344E1,3.0263947E1,2.2639056E2,3.265799E1],"tree_param":{"num_deleted":"0","num_feature":"9","num_nodes":"7","size_leaf_vector":"1"}},{"base_weights":[-2.62577E-2,-6.700022E-1,8.6021386E-2,-3.502365E-3,-5.0603278E-2,1.6170411E-3,2.8936466E-2],"categories":[],"categories_nodes":[],"categories_segments":[],"categories_sizes":[],"default_left":[0,0,0,0,0,0,0],"id":82,"left_children":[1,3,5,-1,-1,-1,-1],"loss_changes":[2.3052425E1,9.64875E0,7.169486E0,0E0,0E0,0E0,0E0],"parents":[2147483647,0,0,1,1,2,2],"right_children":[2,4,6,-1,-1,-1,-1],"split_conditions":[1.4562328E-1,1.05399705E-1,4.1902384E-1,-3.502365E-3,-5.0603278E-2,1.6170411E-3,2.8936466E-2],"split_indices":[1,1,1,0,0,0,0],"split_type":[0,0,0,0,0,0,0],"sum_hessian":[3.171391E2,4.6361465E1,2.7077762E2,1.7272137E1,2.908933E1,2.4513571E2,2.5641914E1],"tree_param":{"num_deleted":"0","num_feature":"9","num_nodes":"7","size_leaf_vector":"1"}},{"base_weights":[3.553704E-2,-6.68008E-1,1.5440537E-1,-3.3270654E-3,-5.055795E-2,1.775383E-2,-1.5284239E-5],"categories":[],"categories_nodes":[],"categories_segments":[],"categories_sizes":[],"default_left":[0,0,1,0,0,0,0],"id":83,"left_children":[1,3,5,-1,-1,-1,-1],"loss_changes":[2.7225842E1,9.646387E0,8.638891E0,0E0,0E0,0E0,0E0],"parents":[2147483647,0,0,1,1,2,2],"right_children":[2,4,6,-1,-1,-1,-1],"split_conditions":[1.4562328E-1,1.05399705E-1,1.2660879E-1,-3.3270654E-3,-5.055795E-2,1.775383E-2,-1.5284239E-5],"split_indices":[1,1,8,0,0,0,0],"split_type":[0,0,0,0,0,0,0],"sum_hessian":[3.2332077E2,4.6063766E1,2.77257E2,1.716728E1,2.8896486E1,1.2013643E2,1.5712057E2],"tree_param":{"num_deleted":"0","num_feature":"9","num_nodes":"7","size_leaf_vector":"1"}},{"base_weights":[-6.112908E-2,-6.455519E-1,5.0930385E-2,-4.526369E-2,1.956092E-2,4.339898E-3,-5.182264E-2],"categories":[],"categories_nodes":[],"categories_segments":[],"categories_sizes":[],"default_left":[0,0,1,0,0,0,0],"id":84,"left_children":[1,3,5,-1,-1,-1,-1],"loss_changes":[1.9845585E1,1.3480677E1,1.0026901E1,0E0,0E0,0E0,0E0],"parents":[2147483647,0,0,1,1,2,2],"right_children":[2,4,6,-1,-1,-1,-1],"split_conditions":[1.5111287E-1,3E0,2.38725E1,-4.526369E-2,1.956092E-2,4.339898E-3,-5.182264E-2],"split_indices":[1,3,7,0,0,0,0],"split_type":[0,0,0,0,0,0,0],"sum_hessian":[3.0152972E2,4.7748188E1,2.5378154E2,3.828438E1,9.463807E0,2.4656859E2,7.212943E0],"tree_param":{"num_deleted":"0","num_feature":"9","num_nodes":"7","size_leaf_vector":"1"}},{"base_weights":[-5.449194E-3,-8.897664E-1,1.3503782E-1,-5.0579514E-2,1.9267317E-2,-1.2444764E-3,1.8018117E-2],"categories":[],"categories_nodes":[],"categories_segments":[],"categories_sizes":[],"default_left":[0,0,0,0,0,0,0],"id":85,"left_children":[1,3,5,-1,-1,-1,-1],"loss_changes":[3.788881E1,6.8841515E0,9.493603E0,0E0,0E0,0E0,0E0],"parents":[2147483647,0,0,1,1,2,2],"right_children":[2,4,6,-1,-1,-1,-1],"split_conditions":[1.4562328E-1,4E0,1E0,-5.0579514E-2,1.9267317E-2,-1.2444764E-3,1.8018117E-2],"split_indices":[1,3,3,0,0,0,0],"split_type":[0,0,0,0,0,0,0],"sum_hessian":[3.0300955E2,4.0807438E1,2.6220212E2,3.7437347E1,3.3700876E0,1.5387596E2,1.0832617E2],"tree_param":{"num_deleted":"0","num_feature":"9","num_nodes":"7","size_leaf_vector":"1"}},{"base_weights":[1.7450813E-2,-6.1733764E-1,1.12639315E-1,1.2920777E-3,-5.017909E-2,1.0870742E-2,-9.2338165E-3],"categories":[],"categories_nodes":[],"categories_segments":[],"categories_sizes":[],"default_left":[0,0,1,0,0,0,0],"id":86,"left_children":[1,3,5,-1,-1,-1,-1],"loss_changes":[1.934715E1,1.0399234E1,8.708953E0,0E0,0E0,0E0,0E0],"parents":[2147483647,0,0,1,1,2,2],"right_children":[2,4,6,-1,-1,-1,-1],"split_conditions":[1.4562328E-1,1.05399705E-1,6.1369443E0,1.2920777E-3,-5.017909E-2,1.0870742E-2,-9.2338165E-3],"split_indices":[1,1,8,0,0,0,0],"split_type":[0,0,0,0,0,0,0],"sum_hessian":[3.1803607E2,4.0756393E1,2.772797E2,1.564208E1,2.5114313E1,2.0522581E2,7.205386E1],"tree_param":{"num_deleted":"0","num_feature":"9","num_nodes":"7","size_leaf_vector":"1"}},{"base_weights":[-3.949985E-2,-3.9360723E-1,1.5893339E-1,-1.22197E-2,-4.1241683E-2,2.401791E-2,-5.708496E-3],"categories":[],"categories_nodes":[],"categories_segments":[],"categories_sizes":[],"default_left":[0,1,0,0,0,0,0],"id":87,"left_children":[1,3,5,-1,-1,-1,-1],"loss_changes":[2.1538435E1,6.8795185E0,1.7311441E1,0E0,0E0,0E0,0E0],"parents":[2147483647,0,0,1,1,2,2],"right_children":[2,4,6,-1,-1,-1,-1],"split_conditions":[1.9043045E-1,6.3279514E0,2.317064E-1,-1.22197E-2,-4.1241683E-2,2.401791E-2,-5.708496E-3],"split_indices":[1,8,1,0,0,0,0],"split_type":[0,0,0,0,0,0,0],"sum_hessian":[3.0463388E2,1.0904957E2,1.9558432E2,8.2180244E1,2.6869322E1,8.94953E1,1.0608902E2],"tree_param":{"num_deleted":"0","num_feature":"9","num_nodes":"7","size_leaf_vector":"1"}},{"base_weights":[-2.1619875E-2,-5.7620895E-1,1.1905057E-1,-4.604025E-2,7.31313E-3,1.4287549E-2,-4.6465583E-3],"categories":[],"categories_nodes":[],"categories_segments":[],"categories_sizes":[],"default_left":[0,0,1,0,0,0,0],"id":88,"left_children":[1,3,5,-1,-1,-1,-1],"loss_changes":[2.3454565E1,1.5277008E1,8.505528E0,0E0,0E0,0E0,0E0],"parents":[2147483647,0,0,1,1,2,2],"right_children":[2,4,6,-1,-1,-1,-1],"split_conditions":[1.7682828E-1,1.5E1,2.15E0,-4.604025E-2,7.31313E-3,1.4287549E-2,-4.6465583E-3],"split_indices":[1,2,8,0,0,0,0],"split_type":[0,0,0,0,0,0,0],"sum_hessian":[2.9876517E2,5.9822113E1,2.3894307E2,4.0317444E1,1.9504667E1,1.3356267E2,1.0538041E2],"tree_param":{"num_deleted":"0","num_feature":"9","num_nodes":"7","size_leaf_vector":"1"}},{"base_weights":[-2.689063E-2,-5.823568E-1,5.5280134E-2,1.5444515E-3,-4.96895E-2,3.561083E-2,4.3157345E-4],"categories":[],"categories_nodes":[],"categories_segments":[],"categories_sizes":[],"default_left":[0,0,0,0,0,0,0],"id":89,"left_children":[1,3,5,-1,-1,-1,-1],"loss_changes":[1.3801863E1,9.861607E0,8.075539E0,0E0,0E0,0E0,0E0],"parents":[2147483647,0,0,1,1,2,2],"right_children":[2,4,6,-1,-1,-1,-1],"split_conditions":[1.4562328E-1,1.05399705E-1,1.080787E-1,1.5444515E-3,-4.96895E-2,3.561083E-2,4.3157345E-4],"split_indices":[1,1,8,0,0,0,0],"split_type":[0,0,0,0,0,0,0],"sum_hessian":[3.0068143E2,3.7963665E1,2.6271777E2,1.5614701E1,2.2348965E1,1.6472584E1,2.4624518E2],"tree_param":{"num_deleted":"0","num_feature":"9","num_nodes":"7","size_leaf_vector":"1"}},{"base_weights":[-1.1258595E-2,-7.142851E-1,8.381008E-2,-4.95249E-2,1.8958556E-2,-4.2726463E-3,1.0988978E-2],"categories":[],"categories_nodes":[],"categories_segments":[],"categories_sizes":[],"default_left":[0,0,0,0,0,0,0],"id":90,"left_children":[1,3,5,-1,-1,-1,-1],"loss_changes":[2.0761415E1,1.1550795E1,6.3187222E0,0E0,0E0,0E0,0E0],"parents":[2147483647,0,0,1,1,2,2],"right_children":[2,4,6,-1,-1,-1,-1],"split_conditions":[1.4562328E-1,1.5E1,2.2505417E-1,-4.95249E-2,1.8958556E-2,-4.2726463E-3,1.0988978E-2],"split_indices":[1,5,1,0,0,0,0],"split_type":[0,0,0,0,0,0,0],"sum_hessian":[3.087375E2,3.6000782E1,2.727367E2,2.8815891E1,7.1848903E0,1.2165934E2,1.5107736E2],"tree_param":{"num_deleted":"0","num_feature":"9","num_nodes":"7","size_leaf_vector":"1"}},{"base_weights":[-7.827355E-3,-3.8421446E-1,6.071284E-2,-7.6473965E-3,-8.542531E-2,1.4293228E-2,-1.0954387E-3],"categories":[],"categories_nodes":[],"categories_segments":[],"categories_sizes":[],"default_left":[0,0,0,0,0,0,0],"id":91,"left_children":[1,3,5,-1,-1,-1,-1],"loss_changes":[7.9400463E0,1.4258793E1,4.851578E0,0E0,0E0,0E0,0E0],"parents":[2147483647,0,0,1,1,2,2],"right_children":[2,4,6,-1,-1,-1,-1],"split_conditions":[3.3055556E-1,2.6722223E-1,1.3984722E0,-7.6473965E-3,-8.542531E-2,1.4293228E-2,-1.0954387E-3],"split_indices":[7,7,7,0,0,0,0],"split_type":[0,0,0,0,0,0,0],"sum_hessian":[3.058776E2,4.6410362E1,2.5946725E2,4.0460136E1,5.950226E0,6.899351E1,1.9047374E2],"tree_param":{"num_deleted":"0","num_feature":"9","num_nodes":"7","size_leaf_vector":"1"}},{"base_weights":[-3.333778E-2,-4.8377164E-2,1.0037711E-2,1.7479831E-1,-1.9676506E-3],"categories":[],"categories_nodes":[],"categories_segments":[],"categories_sizes":[],"default_left":[0,0,0,0,0],"id":92,"left_children":[1,-1,3,-1,-1],"loss_changes":[1.1887085E1,0E0,4.8534634E1,0E0,0E0],"parents":[2147483647,0,0,2,2],"right_children":[2,-1,4,-1,-1],"split_conditions":[1.0314983E-1,-4.8377164E-2,1.05399705E-1,1.7479831E-1,-1.9676506E-3],"split_indices":[1,0,1,0,0],"split_type":[0,0,0,0,0],"sum_hessian":[2.92112E2,1.2015715E1,2.8009628E2,2.9382303E0,2.7715805E2],"tree_param":{"num_deleted":"0","num_feature":"9","num_nodes":"5","size_leaf_vector":"1"}},{"base_weights":[-3.393098E-2,-2.1608673E-1,1.7215982E-1,-5.55274E-3,-6.306536E-2,5.442406E-2,-8.238151E-3],"categories":[],"categories_nodes":[],"categories_segments":[],"categories_sizes":[],"default_left":[0,1,0,0,0,0,0],"id":93,"left_children":[1,3,5,-1,-1,-1,-1],"loss_changes":[1.1083825E1,1.70564E1,4.2973934E1,0E0,0E0,0E0,0E0],"parents":[2147483647,0,0,1,1,2,2],"right_children":[2,4,6,-1,-1,-1,-1],"split_conditions":[2.2505417E-1,1.2049167E1,2.317064E-1,-5.55274E-3,-6.306536E-2,5.442406E-2,-8.238151E-3],"split_indices":[1,7,1,0,0,0,0],"split_type":[0,0,0,0,0,0,0],"sum_hessian":[2.9325784E2,1.5564272E2,1.3761513E2,1.424359E2,1.3206824E1,3.6396835E1,1.0121829E2],"tree_param":{"num_deleted":"0","num_feature":"9","num_nodes":"7","size_leaf_vector":"1"}},{"base_weights":[-1.9147413E-2,-8.292735E-1,1.0204435E-1,-5.2805822E-2,-7.187858E-3,8.787093E-3,-1.7260859E-2],"categories":[],"categories_nodes":[],"categories_segments":[],"categories_sizes":[],"default_left":[0,0,1,0,0,0,0],"id":94,"left_children":[1,3,5,-1,-1,-1,-1],"loss_changes":[2.9236103E1,5.8735332E0,8.603435E0,0E0,0E0,0E0,0E0],"parents":[2147483647,0,0,1,1,2,2],"right_children":[2,4,6,-1,-1,-1,-1],"split_conditions":[1.5111287E-1,1.9E1,1.5266192E1,-5.2805822E-2,-7.187858E-3,8.787093E-3,-1.7260859E-2],"split_indices":[1,2,8,0,0,0,0],"split_type":[0,0,0,0,0,0,0],"sum_hessian":[2.9591684E2,3.7747158E1,2.581697E2,2.7955757E1,9.791401E0,2.221689E2,3.60008E1],"tree_param":{"num_deleted":"0","num_feature":"9","num_nodes":"7","size_leaf_vector":"1"}},{"base_weights":[-2.2229476E-2,1.9024257E-1,-1.7799632E-1,5.9360117E-3,3.0637583E-2,-1.4907065E-2,2.0015957E-2],"categories":[],"categories_nodes":[],"categories_segments":[],"categories_sizes":[],"default_left":[1,0,0,0,0,0,0],"id":95,"left_children":[1,3,5,-1,-1,-1,-1],"loss_changes":[9.302056E0,3.5215173E0,1.1382174E1,0E0,0E0,0E0,0E0],"parents":[2147483647,0,0,1,1,2,2],"right_children":[2,4,6,-1,-1,-1,-1],"split_conditions":[1.080787E-1,6E0,2.7E1,5.9360117E-3,3.0637583E-2,-1.4907065E-2,2.0015957E-2],"split_indices":[8,5,2,0,0,0,0],"split_type":[0,0,0,0,0,0,0],"sum_hessian":[2.7903882E2,1.1794115E2,1.6109766E2,1.01962006E2,1.5979143E1,1.3378773E2,2.7309923E1],"tree_param":{"num_deleted":"0","num_feature":"9","num_nodes":"7","size_leaf_vector":"1"}},{"base_weights":[-6.652842E-3,-4.4923374E-1,8.676007E-2,-1.3517886E-3,-4.0161554E-2,1.340117E-2,-7.840135E-3],"categories":[],"categories_nodes":[],"categories_segments":[],"categories_sizes":[],"default_left":[0,1,0,0,0,0,0],"id":96,"left_children":[1,3,5,-1,-1,-1,-1],"loss_changes":[1.2025566E1,7.55443E0,1.0648419E1,0E0,0E0,0E0,0E0],"parents":[2147483647,0,0,1,1,2,2],"right_children":[2,4,6,-1,-1,-1,-1],"split_conditions":[1.6503973E-1,4.7318286E-1,2.317064E-1,-1.3517886E-3,-4.0161554E-2,1.340117E-2,-7.840135E-3],"split_indices":[1,8,1,0,0,0,0],"split_type":[0,0,0,0,0,0,0],"sum_hessian":[2.88932E2,4.969117E1,2.3924083E2,2.3153418E1,2.653775E1,1.371048E2,1.0213603E2],"tree_param":{"num_deleted":"0","num_feature":"9","num_nodes":"7","size_leaf_vector":"1"}},{"base_weights":[-7.598576E-3,-6.557364E-1,6.9049045E-2,-5.6396625E-3,-4.9269725E-2,9.809334E-3,-6.716343E-3],"categories":[],"categories_nodes":[],"categories_segments":[],"categories_sizes":[],"default_left":[0,0,0,0,0,0,0],"id":97,"left_children":[1,3,5,-1,-1,-1,-1],"loss_changes":[1.5100349E1,5.6421022E0,7.057008E0,0E0,0E0,0E0,0E0],"parents":[2147483647,0,0,1,1,2,2],"right_children":[2,4,6,-1,-1,-1,-1],"split_conditions":[1.4562328E-1,1.05399705E-1,2.317064E-1,-5.6396625E-3,-4.9269725E-2,9.809334E-3,-6.716343E-3],"split_indices":[1,1,1,0,0,0,0],"split_type":[0,0,0,0,0,0,0],"sum_hessian":[3.0205176E2,3.1143644E1,2.709081E2,1.22727375E1,1.8870907E1,1.6672046E2,1.04187645E2],"tree_param":{"num_deleted":"0","num_feature":"9","num_nodes":"7","size_leaf_vector":"1"}},{"base_weights":[-2.364016E-2,-6.4902973E-1,5.551417E-2,-3.9622772E-2,2.9794693E-2,-5.826078E-4,3.0968515E-2],"categories":[],"categories_nodes":[],"categories_segments":[],"categories_sizes":[],"default_left":[0,0,0,0,0,0,0],"id":98,"left_children":[1,3,5,-1,-1,-1,-1],"loss_changes":[1.3808114E1,6.067273E0,9.3948E0,0E0,0E0,0E0,0E0],"parents":[2147483647,0,0,1,1,2,2],"right_children":[2,4,6,-1,-1,-1,-1],"split_conditions":[1.4562328E-1,2.2E1,3E0,-3.9622772E-2,2.9794693E-2,-5.826078E-4,3.0968515E-2],"split_indices":[1,5,3,0,0,0,0],"split_type":[0,0,0,0,0,0,0],"sum_hessian":[2.7721103E2,3.0335339E1,2.4687569E2,2.75274E1,2.8079388E0,2.214732E2,2.5402472E1],"tree_param":{"num_deleted":"0","num_feature":"9","num_nodes":"7","size_leaf_vector":"1"}},{"base_weights":[-1.2856663E-2,-4.7242276E-2,2.3025174E-2,1.6328545E-1,-1.3045727E-3],"categories":[],"categories_nodes":[],"categories_segments":[],"categories_sizes":[],"default_left":[0,0,0,0,0],"id":99,"left_children":[1,-1,3,-1,-1],"loss_changes":[9.544402E0,0E0,4.3912266E1,0E0,0E0],"parents":[2147483647,0,0,2,2],"right_children":[2,-1,4,-1,-1],"split_conditions":[1.0314983E-1,-4.7242276E-2,1.05399705E-1,1.6328545E-1,-1.3045727E-3],"split_indices":[1,0,1,0,0],"split_type":[0,0,0,0,0],"sum_hessian":[2.8375565E2,9.580526E0,2.741751E2,3.113787E0,2.7106134E2],"tree_param":{"num_deleted":"0","num_feature":"9","num_nodes":"5","size_leaf_vector":"1"}},{"base_weights":[4.3544594E-2,-4.7266625E-2,8.012681E-2,1.4395706E-1,1.7917225E-3],"categories":[],"categories_nodes":[],"categories_segments":[],"categories_sizes":[],"default_left":[0,0,0,0,0],"id":100,"left_children":[1,-1,3,-1,-1],"loss_changes":[1.0833439E1,0E0,3.5563164E1,0E0,0E0],"parents":[2147483647,0,0,2,2],"right_children":[2,-1,4,-1,-1],"split_conditions":[1.0314983E-1,-4.7266625E-2,1.05399705E-1,1.4395706E-1,1.7917225E-3],"split_indices":[1,0,1,0,0],"split_type":[0,0,0,0,0],"sum_hessian":[2.9637665E2,9.686746E0,2.866899E2,3.468962E0,2.8322095E2],"tree_param":{"num_deleted":"0","num_feature":"9","num_nodes":"5","size_leaf_vector":"1"}},{"base_weights":[1.1900856E-2,-2.731771E-1,2.1475674E-1,-1.9844506E-2,2.1172969E-2,2.781795E-2,3.849377E-4],"categories":[],"categories_nodes":[],"categories_segments":[],"categories_sizes":[],"default_left":[0,0,0,0,0,0,0],"id":101,"left_children":[1,3,5,-1,-1,-1,-1],"loss_changes":[1.682953E1,1.0596883E1,1.2019808E1,0E0,0E0,0E0,0E0],"parents":[2147483647,0,0,1,1,2,2],"right_children":[2,4,6,-1,-1,-1,-1],"split_conditions":[2.0629966E-1,3E0,2.317064E-1,-1.9844506E-2,2.1172969E-2,2.781795E-2,3.849377E-4],"split_indices":[1,3,1,0,0,0,0],"split_type":[0,0,0,0,0,0,0],"sum_hessian":[2.8900412E2,1.20007805E2,1.6899632E2,1.0227538E2,1.7732422E1,6.3140606E1,1.0585572E2],"tree_param":{"num_deleted":"0","num_feature":"9","num_nodes":"7","size_leaf_vector":"1"}},{"base_weights":[-3.0329403E-2,-1.9898026E-1,2.0149809E-1,-1.656086E-4,-3.209127E-2,3.2852571E-3,2.5128191E-2],"categories":[],"categories_nodes":[],"categories_segments":[],"categories_sizes":[],"default_left":[0,1,0,0,0,0,0],"id":102,"left_children":[1,3,5,-1,-1,-1,-1],"loss_changes":[1.1225799E1,1.43919935E1,4.912877E0,0E0,0E0,0E0,0E0],"parents":[2147483647,0,0,1,1,2,2],"right_children":[2,4,6,-1,-1,-1,-1],"split_conditions":[1E0,1.6305555E-1,3.1683333E0,-1.656086E-4,-3.209127E-2,3.2852571E-3,2.5128191E-2],"split_indices":[3,7,7,0,0,0,0],"split_type":[0,0,0,0,0,0,0],"sum_hessian":[2.8509473E2,1.6511665E2,1.1997808E2,1.1521652E2,4.990014E1,8.352371E1,3.6454365E1],"tree_param":{"num_deleted":"0","num_feature":"9","num_nodes":"7","size_leaf_vector":"1"}},{"base_weights":[-3.9228532E-2,-6.3316584E-1,3.0357039E-2,-4.203872E-3,-4.9021866E-2,7.5993957E-3,-7.453439E-3],"categories":[],"categories_nodes":[],"categories_segments":[],"categories_sizes":[],"default_left":[0,0,0,0,0,0,0],"id":103,"left_children":[1,3,5,-1,-1,-1,-1],"loss_changes":[1.1800817E1,5.62687E0,5.6122317E0,0E0,0E0,0E0,0E0],"parents":[2147483647,0,0,1,1,2,2],"right_children":[2,4,6,-1,-1,-1,-1],"split_conditions":[1.4562328E-1,1.05399705E-1,2.317064E-1,-4.203872E-3,-4.9021866E-2,7.5993957E-3,-7.453439E-3],"split_indices":[1,1,1,0,0,0,0],"split_type":[0,0,0,0,0,0,0],"sum_hessian":[2.8406528E2,2.8941376E1,2.551239E2,1.1693811E1,1.7247564E1,1.5214162E2,1.02982285E2],"tree_param":{"num_deleted":"0","num_feature":"9","num_nodes":"7","size_leaf_vector":"1"}},{"base_weights":[3.9412115E-2,-2.003162E-1,2.8568938E-1,-6.5927305E-3,-7.884353E-2,5.372138E-2,2.4513318E-3],"categories":[],"categories_nodes":[],"categories_segments":[],"categories_sizes":[],"default_left":[0,1,0,0,0,0,0],"id":104,"left_children":[1,3,5,-1,-1,-1,-1],"loss_changes":[1.690584E1,1.3475849E1,2.6300388E1,0E0,0E0,0E0,0E0],"parents":[2147483647,0,0,1,1,2,2],"right_children":[2,4,6,-1,-1,-1,-1],"split_conditions":[2.2505417E-1,2.37175E1,2.317064E-1,-6.5927305E-3,-7.884353E-2,5.372138E-2,2.4513318E-3],"split_indices":[1,7,1,0,0,0,0],"split_type":[0,0,0,0,0,0,0],"sum_hessian":[2.84378E2,1.4419955E2,1.4017842E2,1.3841158E2,5.787981E0,3.1536196E1,1.0864222E2],"tree_param":{"num_deleted":"0","num_feature":"9","num_nodes":"7","size_leaf_vector":"1"}},{"base_weights":[-3.6952622E-2,-7.8633606E-1,4.1792907E-2,-1.3276902E-2,-4.9501505E-2,9.206299E-3,-8.961108E-3],"categories":[],"categories_nodes":[],"categories_segments":[],"categories_sizes":[],"default_left":[0,0,0,0,0,0,0],"id":105,"left_children":[1,3,5,-1,-1,-1,-1],"loss_changes":[1.691814E1,2.6288433E0,8.208261E0,0E0,0E0,0E0,0E0],"parents":[2147483647,0,0,1,1,2,2],"right_children":[2,4,6,-1,-1,-1,-1],"split_conditions":[1.4562328E-1,7E0,2.317064E-1,-1.3276902E-2,-4.9501505E-2,9.206299E-3,-8.961108E-3],"split_indices":[1,0,1,0,0,0,0],"split_type":[0,0,0,0,0,0,0],"sum_hessian":[2.851397E2,2.6259058E1,2.5888068E2,8.030515E0,1.8228542E1,1.575718E2,1.01308876E2],"tree_param":{"num_deleted":"0","num_feature":"9","num_nodes":"7","size_leaf_vector":"1"}},{"base_weights":[1.0824656E-2,-1.1877877E-1,1.9207303E-1,-2.8673196E-3,-6.6945024E-2,3.1395994E-2,2.5817526E-3],"categories":[],"categories_nodes":[],"categories_segments":[],"categories_sizes":[],"default_left":[0,1,0,0,0,0,0],"id":106,"left_children":[1,3,5,-1,-1,-1,-1],"loss_changes":[6.780329E0,1.2541916E1,7.33235E0,0E0,0E0,0E0,0E0],"parents":[2147483647,0,0,1,1,2,2],"right_children":[2,4,6,-1,-1,-1,-1],"split_conditions":[1E0,2.38725E1,1E0,-2.8673196E-3,-6.6945024E-2,3.1395994E-2,2.5817526E-3],"split_indices":[3,7,4,0,0,0,0],"split_type":[0,0,0,0,0,0,0],"sum_hessian":[2.8667117E2,1.6735034E2,1.1932084E2,1.6032507E2,7.0252686E0,2.8232042E1,9.10888E1],"tree_param":{"num_deleted":"0","num_feature":"9","num_nodes":"7","size_leaf_vector":"1"}},{"base_weights":[1.1872487E-2,-6.017366E-1,7.583099E-2,-3.293639E-3,-4.847074E-2,-1.0811973E-3,1.7876685E-2],"categories":[],"categories_nodes":[],"categories_segments":[],"categories_sizes":[],"default_left":[0,0,0,0,0,0,0],"id":107,"left_children":[1,3,5,-1,-1,-1,-1],"loss_changes":[1.1467532E1,5.370922E0,7.2678432E0,0E0,0E0,0E0,0E0],"parents":[2147483647,0,0,1,1,2,2],"right_children":[2,4,6,-1,-1,-1,-1],"split_conditions":[1.4562328E-1,1.05399705E-1,1.5E1,-3.293639E-3,-4.847074E-2,-1.0811973E-3,1.7876685E-2],"split_indices":[1,1,2,0,0,0,0],"split_type":[0,0,0,0,0,0,0],"sum_hessian":[2.900371E2,2.6584152E1,2.6345294E2,1.1297718E1,1.5286433E1,1.9642355E2,6.70294E1],"tree_param":{"num_deleted":"0","num_feature":"9","num_nodes":"7","size_leaf_vector":"1"}},{"base_weights":[-3.2100443E-2,-2.1801838E-1,1.788339E-1,-7.560335E-3,-8.041874E-2,5.3287294E-2,-4.7222427E-3],"categories":[],"categories_nodes":[],"categories_segments":[],"categories_sizes":[],"default_left":[0,1,0,0,0,0,0],"id":108,"left_children":[1,3,5,-1,-1,-1,-1],"loss_changes":[1.102851E1,1.3634552E1,3.2052982E1,0E0,0E0,0E0,0E0],"parents":[2147483647,0,0,1,1,2,2],"right_children":[2,4,6,-1,-1,-1,-1],"split_conditions":[2.2505417E-1,2.37175E1,2.317064E-1,-7.560335E-3,-8.041874E-2,5.3287294E-2,-4.7222427E-3],"split_indices":[1,7,1,0,0,0,0],"split_type":[0,0,0,0,0,0,0],"sum_hessian":[2.7922708E2,1.4839651E2,1.3083057E2,1.426504E2,5.7461176E0,3.013362E1,1.00696945E2],"tree_param":{"num_deleted":"0","num_feature":"9","num_nodes":"7","size_leaf_vector":"1"}},{"base_weights":[2.4890373E-2,-4.512422E-2,5.3340167E-1,-1.5018637E-2,6.691807E-3,7.145044E-2,1.2236083E-2],"categories":[],"categories_nodes":[],"categories_segments":[],"categories_sizes":[],"default_left":[0,0,0,0,0,0,0],"id":109,"left_children":[1,3,5,-1,-1,-1,-1],"loss_changes":[1.0191679E1,1.154873E1,8.606181E0,0E0,0E0,0E0,0E0],"parents":[2147483647,0,0,1,1,2,2],"right_children":[2,4,6,-1,-1,-1,-1],"split_conditions":[3E0,2.0629966E-1,2.5416666E-1,-1.5018637E-2,6.691807E-3,7.145044E-2,1.2236083E-2],"split_indices":[3,1,7,0,0,0,0],"split_type":[0,0,0,0,0,0,0],"sum_hessian":[2.8458127E2,2.5094153E2,3.3639732E1,1.0314661E2,1.4779492E2,7.237087E0,2.6402645E1],"tree_param":{"num_deleted":"0","num_feature":"9","num_nodes":"7","size_leaf_vector":"1"}},{"base_weights":[3.5007842E-2,-1.4780197E-1,2.2785425E-1,-4.1635246E-3,-7.777361E-2,5.3133845E-2,-1.0807549E-3],"categories":[],"categories_nodes":[],"categories_segments":[],"categories_sizes":[],"default_left":[0,1,0,0,0,0,0],"id":110,"left_children":[1,3,5,-1,-1,-1,-1],"loss_changes":[1.0335845E1,1.355291E1,2.9721695E1,0E0,0E0,0E0,0E0],"parents":[2147483647,0,0,1,1,2,2],"right_children":[2,4,6,-1,-1,-1,-1],"split_conditions":[2.2505417E-1,2.37175E1,2.317064E-1,-4.1635246E-3,-7.777361E-2,5.3133845E-2,-1.0807549E-3],"split_indices":[1,7,1,0,0,0,0],"split_type":[0,0,0,0,0,0,0],"sum_hessian":[2.9122516E2,1.496229E2,1.4160225E2,1.4407716E2,5.5457377E0,3.1829264E1,1.09772995E2],"tree_param":{"num_deleted":"0","num_feature":"9","num_nodes":"7","size_leaf_vector":"1"}},{"base_weights":[2.089277E-2,-5.8269215E-1,8.22563E-2,-6.645268E-5,-4.8439536E-2,1.2943749E-2,-2.4919885E-3],"categories":[],"categories_nodes":[],"categories_segments":[],"categories_sizes":[],"default_left":[0,0,1,0,0,0,0],"id":111,"left_children":[1,3,5,-1,-1,-1,-1],"loss_changes":[1.0587692E1,5.9210205E0,6.0597615E0,0E0,0E0,0E0,0E0],"parents":[2147483647,0,0,1,1,2,2],"right_children":[2,4,6,-1,-1,-1,-1],"split_conditions":[1.4562328E-1,1.05399705E-1,1.080787E-1,-6.645268E-5,-4.8439536E-2,1.2943749E-2,-2.4919885E-3],"split_indices":[1,1,8,0,0,0,0],"split_type":[0,0,0,0,0,0,0],"sum_hessian":[2.8356537E2,2.538429E1,2.581811E2,1.0530925E1,1.4853367E1,1.1006253E2,1.4811855E2],"tree_param":{"num_deleted":"0","num_feature":"9","num_nodes":"7","size_leaf_vector":"1"}},{"base_weights":[6.939528E-3,1.8403757E-1,-2.0435794E-1,3.5244368E-3,3.587325E-2,-2.674306E-2,3.7324403E-3],"categories":[],"categories_nodes":[],"categories_segments":[],"categories_sizes":[],"default_left":[0,0,0,0,0,0,0],"id":112,"left_children":[1,3,5,-1,-1,-1,-1],"loss_changes":[1.0418562E1,9.122581E0,1.1747934E1,0E0,0E0,0E0,0E0],"parents":[2147483647,0,0,1,1,2,2],"right_children":[2,4,6,-1,-1,-1,-1],"split_conditions":[1E0,4E0,1.3E1,3.5244368E-3,3.587325E-2,-2.674306E-2,3.7324403E-3],"split_indices":[4,5,2,0,0,0,0],"split_type":[0,0,0,0,0,0,0],"sum_hessian":[2.764145E2,1.50447E2,1.25967476E2,1.2497596E2,2.547105E1,5.7242573E1,6.872491E1],"tree_param":{"num_deleted":"0","num_feature":"9","num_nodes":"7","size_leaf_vector":"1"}},{"base_weights":[-2.0405194E-2,-4.6387993E-2,1.1588449E-2,1.3408089E-1,-1.7474307E-3],"categories":[],"categories_nodes":[],"categories_segments":[],"categories_sizes":[],"default_left":[0,0,0,0,0],"id":113,"left_children":[1,-1,3,-1,-1],"loss_changes":[8.09657E0,0E0,3.364739E1,0E0,0E0],"parents":[2147483647,0,0,2,2],"right_children":[2,-1,4,-1,-1],"split_conditions":[1.0314983E-1,-4.6387993E-2,1.05399705E-1,1.3408089E-1,-1.7474307E-3],"split_indices":[1,0,1,0,0],"split_type":[0,0,0,0,0],"sum_hessian":[2.775372E2,8.499147E0,2.6903806E2,3.6388438E0,2.653992E2],"tree_param":{"num_deleted":"0","num_feature":"9","num_nodes":"5","size_leaf_vector":"1"}},{"base_weights":[-9.475532E-3,-1.8737224E-1,1.7943831E-1,1.6601064E-3,-2.3909708E-2,5.2625086E-2,-2.5194807E-3],"categories":[],"categories_nodes":[],"categories_segments":[],"categories_sizes":[],"default_left":[0,0,0,0,0,0,0],"id":114,"left_children":[1,3,5,-1,-1,-1,-1],"loss_changes":[9.382668E0,9.237769E0,2.7226902E1,0E0,0E0,0E0,0E0],"parents":[2147483647,0,0,1,1,2,2],"right_children":[2,4,6,-1,-1,-1,-1],"split_conditions":[2.2505417E-1,3E0,2.317064E-1,1.6601064E-3,-2.3909708E-2,5.2625086E-2,-2.5194807E-3],"split_indices":[1,6,1,0,0,0,0],"split_type":[0,0,0,0,0,0,0],"sum_hessian":[2.7718622E2,1.4275995E2,1.3442627E2,8.168879E1,6.1071163E1,2.7266727E1,1.0715954E2],"tree_param":{"num_deleted":"0","num_feature":"9","num_nodes":"7","size_leaf_vector":"1"}},{"base_weights":[3.8195744E-2,-5.9306574E-1,9.9922664E-2,3.3410423E-2,-4.8943818E-2,-1.4840714E-2,8.839312E-3],"categories":[],"categories_nodes":[],"categories_segments":[],"categories_sizes":[],"default_left":[0,0,0,0,0,0,0],"id":115,"left_children":[1,3,5,-1,-1,-1,-1],"loss_changes":[1.1267749E1,1.3192222E1,8.06899E0,0E0,0E0,0E0,0E0],"parents":[2147483647,0,0,1,1,2,2],"right_children":[2,4,6,-1,-1,-1,-1],"split_conditions":[1.4562328E-1,2.5416666E-1,3.3055556E-1,3.3410423E-2,-4.8943818E-2,-1.4840714E-2,8.839312E-3],"split_indices":[1,7,7,0,0,0,0],"split_type":[0,0,0,0,0,0,0],"sum_hessian":[2.8664917E2,2.4766119E1,2.6188306E2,5.6297255E0,1.9136395E1,4.2038204E1,2.1984485E2],"tree_param":{"num_deleted":"0","num_feature":"9","num_nodes":"7","size_leaf_vector":"1"}},{"base_weights":[1.8425956E-2,-5.392462E-1,7.1162865E-2,1.4820825E-3,-4.7815274E-2,1.02146445E-2,-5.9115603E-3],"categories":[],"categories_nodes":[],"categories_segments":[],"categories_sizes":[],"default_left":[0,0,0,0,0,0,0],"id":116,"left_children":[1,3,5,-1,-1,-1,-1],"loss_changes":[8.297265E0,5.8123436E0,6.515299E0,0E0,0E0,0E0,0E0],"parents":[2147483647,0,0,1,1,2,2],"right_children":[2,4,6,-1,-1,-1,-1],"split_conditions":[1.4562328E-1,1.05399705E-1,2.317064E-1,1.4820825E-3,-4.7815274E-2,1.02146445E-2,-5.9115603E-3],"split_indices":[1,1,1,0,0,0,0],"split_type":[0,0,0,0,0,0,0],"sum_hessian":[2.7982004E2,2.3378313E1,2.564417E2,1.0282052E1,1.3096261E1,1.5054268E2,1.0589904E2],"tree_param":{"num_deleted":"0","num_feature":"9","num_nodes":"7","size_leaf_vector":"1"}},{"base_weights":[1.5023623E-2,-1.7059161E-1,2.1120127E-1,-5.7764626E-3,-7.2780274E-2,5.211072E-2,4.0808736E-4],"categories":[],"categories_nodes":[],"categories_segments":[],"categories_sizes":[],"default_left":[0,1,0,0,0,0,0],"id":117,"left_children":[1,3,5,-1,-1,-1,-1],"loss_changes":[1.0324847E1,1.0143723E1,2.3244923E1,0E0,0E0,0E0,0E0],"parents":[2147483647,0,0,1,1,2,2],"right_children":[2,4,6,-1,-1,-1,-1],"split_conditions":[2.2505417E-1,2.37175E1,2.317064E-1,-5.7764626E-3,-7.2780274E-2,5.211072E-2,4.0808736E-4],"split_indices":[1,7,1,0,0,0,0],"split_type":[0,0,0,0,0,0,0],"sum_hessian":[2.815546E2,1.4473895E2,1.3681563E2,1.398369E2,4.902052E0,2.605264E1,1.10762985E2],"tree_param":{"num_deleted":"0","num_feature":"9","num_nodes":"7","size_leaf_vector":"1"}},{"base_weights":[3.936174E-3,-7.272346E-1,6.686717E-2,-7.489109E-3,-4.8584323E-2,-9.05973E-4,2.0335976E-2],"categories":[],"categories_nodes":[],"categories_segments":[],"categories_sizes":[],"default_left":[0,0,0,0,0,0,0],"id":118,"left_children":[1,3,5,-1,-1,-1,-1],"loss_changes":[1.300002E1,3.0150442E0,7.519246E0,0E0,0E0,0E0,0E0],"parents":[2147483647,0,0,1,1,2,2],"right_children":[2,4,6,-1,-1,-1,-1],"split_conditions":[1.4562328E-1,7E0,7E0,-7.489109E-3,-4.8584323E-2,-9.05973E-4,2.0335976E-2],"split_indices":[1,0,4,0,0,0,0],"split_type":[0,0,0,0,0,0,0],"sum_hessian":[2.8047058E2,2.1390192E1,2.5908038E2,6.841559E0,1.4548633E1,2.0801012E2,5.107026E1],"tree_param":{"num_deleted":"0","num_feature":"9","num_nodes":"7","size_leaf_vector":"1"}},{"base_weights":[2.243994E-2,-4.5733687E-2,5.2010067E-2,1.344804E-1,3.6223765E-4],"categories":[],"categories_nodes":[],"categories_segments":[],"categories_sizes":[],"default_left":[0,0,0,0,0],"id":119,"left_children":[1,-1,3,-1,-1],"loss_changes":[7.882481E0,0E0,3.245507E1,0E0,0E0],"parents":[2147483647,0,0,2,2],"right_children":[2,-1,4,-1,-1],"split_conditions":[1.0314983E-1,-4.5733687E-2,1.05399705E-1,1.344804E-1,3.6223765E-4],"split_indices":[1,0,1,0,0],"split_type":[0,0,0,0,0],"sum_hessian":[2.817408E2,7.702631E0,2.7403818E2,3.5873454E0,2.7045084E2],"tree_param":{"num_deleted":"0","num_feature":"9","num_nodes":"5","size_leaf_vector":"1"}},{"base_weights":[3.861845E-4,1.0936749E-1,-1.5422773E-1,2.0035155E-2,-1.9813913E-3,-3.7003577E-2,7.340852E-3],"categories":[],"categories_nodes":[],"categories_segments":[],"categories_sizes":[],"default_left":[0,0,0,0,0,0,0],"id":120,"left_children":[1,3,5,-1,-1,-1,-1],"loss_changes":[4.7071724E0,7.128526E0,2.0478647E1,0E0,0E0,0E0,0E0],"parents":[2147483647,0,0,1,1,2,2],"right_children":[2,4,6,-1,-1,-1,-1],"split_conditions":[7E0,2.37175E1,1.3E1,2.0035155E-2,-1.9813913E-3,-3.7003577E-2,7.340852E-3],"split_indices":[2,7,2,0,0,0,0],"split_type":[0,0,0,0,0,0,0],"sum_hessian":[2.7735596E2,1.6285704E2,1.1449892E2,5.45345E1,1.0832253E2,3.8370403E1,7.612852E1],"tree_param":{"num_deleted":"0","num_feature":"9","num_nodes":"7","size_leaf_vector":"1"}},{"base_weights":[3.31439E-2,-5.60511E-1,8.707675E-2,3.1002602E-2,-4.852417E-2,1.6187243E-3,2.999988E-2],"categories":[],"categories_nodes":[],"categories_segments":[],"categories_sizes":[],"default_left":[0,0,0,0,0,0,0],"id":121,"left_children":[1,3,5,-1,-1,-1,-1],"loss_changes":[9.052413E0,1.2001987E1,7.2378874E0,0E0,0E0,0E0,0E0],"parents":[2147483647,0,0,1,1,2,2],"right_children":[2,4,6,-1,-1,-1,-1],"split_conditions":[1.4562328E-1,2.5416666E-1,2.3E1,3.1002602E-2,-4.852417E-2,1.6187243E-3,2.999988E-2],"split_indices":[1,7,6,0,0,0,0],"split_type":[0,0,0,0,0,0,0],"sum_hessian":[2.8020886E2,2.2554293E1,2.5765457E2,5.681457E0,1.6872837E1,2.3378487E2,2.38697E1],"tree_param":{"num_deleted":"0","num_feature":"9","num_nodes":"7","size_leaf_vector":"1"}},{"base_weights":[2.3902247E-2,1.4742264E-1,-1.7146161E-1,-6.215427E-2,9.900537E-3,-2.9684996E-2,7.099873E-3],"categories":[],"categories_nodes":[],"categories_segments":[],"categories_sizes":[],"default_left":[0,0,0,0,0,0,0],"id":122,"left_children":[1,3,5,-1,-1,-1,-1],"loss_changes":[6.7817793E0,1.235021E1,1.4499827E1,0E0,0E0,0E0,0E0],"parents":[2147483647,0,0,1,1,2,2],"right_children":[2,4,6,-1,-1,-1,-1],"split_conditions":[7E0,1.4472222E-1,6E0,-6.215427E-2,9.900537E-3,-2.9684996E-2,7.099873E-3],"split_indices":[2,7,4,0,0,0,0],"split_type":[0,0,0,0,0,0,0],"sum_hessian":[2.7898773E2,1.7107167E2,1.0791606E2,5.1777906E0,1.6589388E2,4.559895E1,6.2317116E1],"tree_param":{"num_deleted":"0","num_feature":"9","num_nodes":"7","size_leaf_vector":"1"}},{"base_weights":[1.2708945E-2,1.6281143E-1,-1.4864756E-1,3.556462E-3,2.8177394E-2,-2.3863751E-2,7.6590106E-3],"categories":[],"categories_nodes":[],"categories_segments":[],"categories_sizes":[],"default_left":[0,0,0,0,0,0,0],"id":123,"left_children":[1,3,5,-1,-1,-1,-1],"loss_changes":[6.714161E0,5.2349415E0,1.3328768E1,0E0,0E0,0E0,0E0],"parents":[2147483647,0,0,1,1,2,2],"right_children":[2,4,6,-1,-1,-1,-1],"split_conditions":[1E0,1E0,1.3E1,3.556462E-3,2.8177394E-2,-2.3863751E-2,7.6590106E-3],"split_indices":[4,3,2,0,0,0,0],"split_type":[0,0,0,0,0,0,0],"sum_hessian":[2.752162E2,1.4257565E2,1.3264055E2,1.16988106E2,2.5587543E1,6.3222813E1,6.941773E1],"tree_param":{"num_deleted":"0","num_feature":"9","num_nodes":"7","size_leaf_vector":"1"}},{"base_weights":[5.253309E-2,-4.514932E-2,8.025679E-2,1.1104336E-1,1.9440223E-3],"categories":[],"categories_nodes":[],"categories_segments":[],"categories_sizes":[],"default_left":[0,0,0,0,0],"id":124,"left_children":[1,-1,3,-1,-1],"loss_changes":[7.455374E0,0E0,2.3983585E1,0E0,0E0],"parents":[2147483647,0,0,2,2],"right_children":[2,-1,4,-1,-1],"split_conditions":[1.0314983E-1,-4.514932E-2,1.05399705E-1,1.1104336E-1,1.9440223E-3],"split_indices":[1,0,1,0,0],"split_type":[0,0,0,0,0],"sum_hessian":[2.7769968E2,6.939891E0,2.707598E2,4.135479E0,2.666243E2],"tree_param":{"num_deleted":"0","num_feature":"9","num_nodes":"5","size_leaf_vector":"1"}},{"base_weights":[5.462563E-2,-6.9715303E-1,1.15505494E-1,-2.308386E-3,-4.821701E-2,1.2101826E-2,-3.4762311E-3],"categories":[],"categories_nodes":[],"categories_segments":[],"categories_sizes":[],"default_left":[0,0,0,0,0,0,0],"id":125,"left_children":[1,3,5,-1,-1,-1,-1],"loss_changes":[1.2493684E1,3.5142345E0,5.9109936E0,0E0,0E0,0E0,0E0],"parents":[2147483647,0,0,1,1,2,2],"right_children":[2,4,6,-1,-1,-1,-1],"split_conditions":[1.4562328E-1,7E0,2.317064E-1,-2.308386E-3,-4.821701E-2,1.2101826E-2,-3.4762311E-3],"split_indices":[1,0,1,0,0,0,0],"split_type":[0,0,0,0,0,0,0],"sum_hessian":[2.7021805E2,1.9460283E1,2.5075777E2,6.004202E0,1.3456082E1,1.487372E2,1.0202056E2],"tree_param":{"num_deleted":"0","num_feature":"9","num_nodes":"7","size_leaf_vector":"1"}},{"base_weights":[-1.6149934E-2,-1.9746219E-1,1.6384745E-1,-7.213581E-2,-5.585586E-3,5.196905E-2,-2.2371314E-3],"categories":[],"categories_nodes":[],"categories_segments":[],"categories_sizes":[],"default_left":[0,0,0,0,0,0,0],"id":126,"left_children":[1,3,5,-1,-1,-1,-1],"loss_changes":[8.987097E0,1.4483491E1,2.52926E1,0E0,0E0,0E0,0E0],"parents":[2147483647,0,0,1,1,2,2],"right_children":[2,4,6,-1,-1,-1,-1],"split_conditions":[2.2505417E-1,1.5194444E-1,2.317064E-1,-7.213581E-2,-5.585586E-3,5.196905E-2,-2.2371314E-3],"split_indices":[1,7,1,0,0,0,0],"split_type":[0,0,0,0,0,0,0],"sum_hessian":[2.7338464E2,1.3614653E2,1.3723811E2,7.7517858E0,1.2839474E2,2.5638878E1,1.1159923E2],"tree_param":{"num_deleted":"0","num_feature":"9","num_nodes":"7","size_leaf_vector":"1"}},{"base_weights":[4.547145E-3,-5.1501147E-2,4.7248584E-1,2.606566E-3,-1.311243E-2,5.753052E-2,1.3011448E-2],"categories":[],"categories_nodes":[],"categories_segments":[],"categories_sizes":[],"default_left":[0,0,0,0,0,0,0],"id":127,"left_children":[1,3,5,-1,-1,-1,-1],"loss_changes":[7.217533E0,5.382671E0,3.9373622E0,0E0,0E0,0E0,0E0],"parents":[2147483647,0,0,1,1,2,2],"right_children":[2,4,6,-1,-1,-1,-1],"split_conditions":[3E0,7E0,2.5416666E-1,2.606566E-3,-1.311243E-2,5.753052E-2,1.3011448E-2],"split_indices":[3,2,7,0,0,0,0],"split_type":[0,0,0,0,0,0,0],"sum_hessian":[2.7326523E2,2.4483015E2,2.843508E1,1.6462866E2,8.0201485E1,5.7247243E0,2.2710356E1],"tree_param":{"num_deleted":"0","num_feature":"9","num_nodes":"7","size_leaf_vector":"1"}},{"base_weights":[-7.1124467E-3,-2.6438373E-1,1.6800876E-1,-9.208629E-3,-7.483744E-2,2.3461817E-2,1.0756209E-3],"categories":[],"categories_nodes":[],"categories_segments":[],"categories_sizes":[],"default_left":[0,1,0,0,0,0,0],"id":128,"left_children":[1,3,5,-1,-1,-1,-1],"loss_changes":[1.2474866E1,1.0808406E1,7.2611046E0,0E0,0E0,0E0,0E0],"parents":[2147483647,0,0,1,1,2,2],"right_children":[2,4,6,-1,-1,-1,-1],"split_conditions":[2.0629966E-1,2.2928055E1,2.317064E-1,-9.208629E-3,-7.483744E-2,2.3461817E-2,1.0756209E-3],"split_indices":[1,7,1,0,0,0,0],"split_type":[0,0,0,0,0,0,0],"sum_hessian":[2.7490317E2,1.11130775E2,1.637724E2,1.0541881E2,5.7119665E0,5.2865875E1,1.10906525E2],"tree_param":{"num_deleted":"0","num_feature":"9","num_nodes":"7","size_leaf_vector":"1"}},{"base_weights":[-4.7657087E-2,4.7732213E-1,-8.8548884E-2,-6.094991E-2,3.777587E-2,-6.213404E-2,-2.7476351E-3],"categories":[],"categories_nodes":[],"categories_segments":[],"categories_sizes":[],"default_left":[0,0,0,0,0,0,0],"id":129,"left_children":[1,3,5,-1,-1,-1,-1],"loss_changes":[5.7905507E0,1.0126198E1,9.596716E0,0E0,0E0,0E0,0E0],"parents":[2147483647,0,0,1,1,2,2],"right_children":[2,4,6,-1,-1,-1,-1],"split_conditions":[1.080787E-1,1E1,2.7829862E-1,-6.094991E-2,3.777587E-2,-6.213404E-2,-2.7476351E-3],"split_indices":[8,2,8,0,0,0,0],"split_type":[0,0,0,0,0,0,0],"sum_hessian":[2.6676874E2,1.850638E1,2.4826237E2,2.1309454E0,1.6375435E1,6.0043907E0,2.4225798E2],"tree_param":{"num_deleted":"0","num_feature":"9","num_nodes":"7","size_leaf_vector":"1"}},{"base_weights":[6.2238234E-3,-5.546596E-1,5.7564124E-2,2.8256534E-2,-4.8342217E-2,9.803682E-3,-3.173418E-3],"categories":[],"categories_nodes":[],"categories_segments":[],"categories_sizes":[],"default_left":[0,0,0,0,0,0,0],"id":130,"left_children":[1,3,5,-1,-1,-1,-1],"loss_changes":[7.755137E0,1.0970894E1,4.146812E0,0E0,0E0,0E0,0E0],"parents":[2147483647,0,0,1,1,2,2],"right_children":[2,4,6,-1,-1,-1,-1],